<?xml version="1.0"?>
<opencv_storage>
<opencv_ml_ann_mlp>
  <format>3</format>
  <layer_sizes>
    784 128 64 32 10</layer_sizes>
  <activation_function>SIGMOID_SYM</activation_function>
  <f_param1>1.</f_param1>
  <f_param2>1.</f_param2>
  <min_val>-9.4999999999999996e-01</min_val>
  <max_val>9.4999999999999996e-01</max_val>
  <min_val1>-9.7999999999999998e-01</min_val1>
  <max_val1>9.7999999999999998e-01</max_val1>
  <training_params>
    <train_method>BACKPROP</train_method>
    <dw_scale>1.0000000000000000e-03</dw_scale>
    <moment_scale>1.0000000000000001e-01</moment_scale>
    <term_criteria>
      <epsilon>1.0000000000000000e-04</epsilon>
      <iterations>10</iterations></term_criteria></training_params>
  <input_scale>
    1. 0. 1. 0. 1. 0. 1. 0. 1. 0. 1. 0. 1. 0. 1. 0. 1. 0. 1. 0. 1. 0. 1.
    0. 5.3648086112267708e+02 -4.4180779827508289e-03
    1.8733773179548439e+02 -5.7548196134174561e-03
    2.8917825878035148e+02 -4.0825169257547676e-03
    6.9402784549102953e+03 -4.0825169257547667e-03 1. 0. 1. 0. 1. 0. 1.
    0. 1. 0. 1. 0. 1. 0. 1. 0. 1. 0. 1. 0. 1. 0. 1. 0. 1. 0. 1. 0. 1. 0.
    1. 0. 3.9039065793799291e+03 -4.0825169257547667e-03
    1.3101496181268840e+03 -4.7096882957418460e-03
    2.4170555348035870e+02 -8.7993464062939859e-03
    1.2171279527539565e+02 -1.1590559111324349e-02
    8.6089355312929669e+01 -1.4758979806657755e-02
    7.6718215762165855e+01 -1.9284854630964864e-02
    5.2369379002334817e+01 -2.4671797535435320e-02
    4.6120561049437157e+01 -2.9071027116331513e-02
    4.4786876310936357e+01 -3.0592658283360431e-02
    4.4787654518925926e+01 -3.1164012767665953e-02
    4.3052373681648511e+01 -3.1962871926246646e-02
    4.4224210304980879e+01 -3.0202535627914352e-02
    4.2710975388116935e+01 -3.1310217471220446e-02
    4.7105535741166285e+01 -2.8383396050560897e-02
    5.8885233762031589e+01 -2.3119190653715278e-02
    6.8612391645584523e+01 -1.9166626016091107e-02
    7.9472339837326160e+01 -1.6772300733235886e-02
    1.3123580494507769e+02 -1.0996360191059791e-02
    2.1052952876570595e+02 -8.3248608177045706e-03
    3.1615379754194385e+02 -4.3806935487015718e-03 1. 0. 1. 0. 1. 0. 1.
    0. 1. 0. 1. 0. 9.7597664484498227e+02 -4.0825169257547667e-03
    1.9654473188115726e+03 -5.3953459916499021e-03
    3.1269280910395213e+02 -8.5224123575504181e-03
    5.5735880197050039e+02 -1.1985036350536564e-02
    9.5576147669224213e+01 -1.7653477693317533e-02
    5.1056928198942387e+01 -2.7710898934847218e-02
    3.5733228960822501e+01 -3.7020094355943708e-02
    2.6249779455928422e+01 -5.2151280269886753e-02
    1.9721077881355743e+01 -6.7036200782484484e-02
    1.6409285936409940e+01 -8.3017048476941760e-02
    1.3549185763723248e+01 -9.9379297919534162e-02
    1.1609696247823491e+01 -1.1518412789352704e-01
    1.0285109683791495e+01 -1.2913325623986052e-01
    9.7338723747770342e+00 -1.3839467758189983e-01
    9.5151753595613027e+00 -1.3888363095653675e-01
    9.9099718557888359e+00 -1.3184343839082549e-01
    1.0956210129442209e+01 -1.2042952241712493e-01
    1.2709040873169624e+01 -1.0189079497190764e-01
    1.6674130066581927e+01 -7.8604904493626282e-02
    2.2944006049452806e+01 -5.6995613150646912e-02
    3.4145330951324397e+01 -3.9657683889337721e-02
    6.4380969557121546e+01 -2.3728386157779516e-02
    1.0201215757836090e+02 -1.4088346345228733e-02
    2.3129702230425093e+02 -7.8308407147921893e-03 1. 0. 1. 0. 1. 0. 1.
    0. 4.2338233222320622e+02 -5.3683775164463359e-03
    3.8666741184995590e+02 -8.8706058702787121e-03
    2.9859013562967027e+02 -1.4070817080792121e-02
    8.0947485430025779e+01 -2.2146809872559656e-02
    4.2299101093135377e+01 -3.5180136757070192e-02
    2.5693165461062524e+01 -5.5023680206576914e-02
    1.7471605472728648e+01 -7.9096132123637974e-02
    1.2387967288074965e+01 -1.0764901250774413e-01
    9.6103998753495148e+00 -1.3716993577771078e-01
    7.8359630140586667e+00 -1.6710576145957259e-01
    6.7479266182068880e+00 -1.9600875548705954e-01
    5.9035583295777876e+00 -2.2449111377383443e-01
    5.3359277690875206e+00 -2.4865599152467557e-01
    5.0493486114265380e+00 -2.6211797084428423e-01
    5.1020313974096103e+00 -2.6259690174649675e-01
    5.3500793760010161e+00 -2.4785590332470062e-01
    5.9302660836054288e+00 -2.2194700330518258e-01
    6.9559315041301275e+00 -1.8721140508422568e-01
    8.9774376860305054e+00 -1.4764013173960755e-01
    1.2125871415210188e+01 -1.0816436397603621e-01
    1.8460388388393319e+01 -7.6812111722737136e-02
    2.9061170312521984e+01 -4.7075299599988248e-02
    4.7515689787960333e+01 -3.0201967690034665e-02
    1.3997059613563863e+02 -1.5241243565605141e-02
    4.8119586760771091e+02 -5.2837196131916911e-03 1. 0. 1. 0.
    1.6437501695049459e+03 -4.0825169257547658e-03
    3.7948998853379533e+02 -7.7634230267370988e-03
    2.6465363728791601e+02 -1.4893254732806980e-02
    7.5547096255112706e+01 -2.3962750394587045e-02
    3.1293044504213050e+01 -5.0340898205060707e-02
    1.9253318634088433e+01 -7.8767470285035945e-02
    1.2245895593164850e+01 -1.1618154027115041e-01
    8.6097735461847673e+00 -1.6124756201621104e-01
    6.4388290655382177e+00 -2.1196163539322715e-01
    5.1132839333123794e+00 -2.6689873120446878e-01
    4.2638295865119149e+00 -3.2567801031101257e-01
    3.6806137823796932e+00 -3.9024154812871720e-01
    3.2738533445371365e+00 -4.5207637597935729e-01
    3.0435957015751249e+00 -4.9939798408555242e-01
    2.9495369476800439e+00 -5.2342832447159837e-01
    2.9769121339466871e+00 -5.1761889461737653e-01
    3.1329986553182634e+00 -4.8090241923125404e-01
    3.4437107371635247e+00 -4.2307969418361629e-01
    3.9682891451720619e+00 -3.5674039511514100e-01
    4.8775703050567412e+00 -2.8368364862797046e-01
    6.3838808561750398e+00 -2.1683666147397243e-01
    8.8883049805054828e+00 -1.5852438036029368e-01
    1.2980744224136762e+01 -1.0878458140727049e-01
    2.0958679349584536e+01 -7.0922530885712237e-02
    4.7812935375637117e+01 -3.8953481857588748e-02
    1.2257531082485704e+02 -1.4252385096345925e-02
    7.2367716936445129e+02 -5.7704980653172739e-03 1. 0. 1. 0.
    2.9417871409176229e+02 -1.1901740591771397e-02
    8.8757530347717918e+01 -2.2050156100985412e-02
    3.3425594347193027e+01 -5.1838075032869309e-02
    1.5797610427781230e+01 -9.0659703549704485e-02
    9.9267727616022050e+00 -1.3966710551554903e-01
    6.9531284687833788e+00 -1.9708212046266760e-01
    5.1791885608344739e+00 -2.6438472757960929e-01
    4.0949476347110645e+00 -3.4073044156171650e-01
    3.4204838627746872e+00 -4.2253574897947221e-01
    2.9730830135062059e+00 -5.1540864837516176e-01
    2.6668715098352256e+00 -6.1603532678715833e-01
    2.4737867773736086e+00 -7.1598329673273453e-01
    2.3794853541254568e+00 -7.9412046613918852e-01
    2.3503096782081569e+00 -8.3504925277466158e-01
    2.3634511226772612e+00 -8.2418581130502888e-01
    2.4260535518501145e+00 -7.6283928353203079e-01
    2.5775766189267575e+00 -6.6655949819563010e-01
    2.8486226905747727e+00 -5.5625039785310926e-01
    3.3231496146237878e+00 -4.4764565410504875e-01
    4.1210726007935383e+00 -3.4762461414855667e-01
    5.3682588800854578e+00 -2.6084090668020327e-01
    7.3094122847945231e+00 -1.9030605330409703e-01
    1.1168926070114086e+01 -1.3108012966979618e-01
    2.2622368740378374e+01 -7.4846037361130602e-02
    5.7487755543934533e+01 -3.1930129134389050e-02
    4.4537747239005859e+02 -8.2089183482417123e-03 1. 0.
    7.7475757886250503e+03 -5.5701529173119045e-03
    1.4522877016448132e+02 -1.5661927077608467e-02
    4.1878260821232438e+01 -3.6365660611050912e-02
    1.7999908350577073e+01 -7.9024307918990955e-02
    1.0331230429051605e+01 -1.3328908612740026e-01
    6.8290996301466125e+00 -1.9915441058522224e-01
    4.9272086510463255e+00 -2.7542969134587159e-01
    3.8384133102417062e+00 -3.6333594594595264e-01
    3.1668068251893828e+00 -4.6308053280783451e-01
    2.7597554515312352e+00 -5.7484518876649637e-01
    2.5128740559311606e+00 -6.9880387253152199e-01
    2.3671696535771547e+00 -8.2877368315478328e-01
    2.2969090077426988e+00 -9.5689204740368539e-01
    2.2733046633643097e+00 -1.0564726392247847e+00
    2.2700028349111152e+00 -1.1047183076476730e+00
    2.2700796777978907e+00 -1.0835076088559290e+00
    2.2737220016401105e+00 -9.9895164545578086e-01
    2.3209343688260513e+00 -8.7474762331876643e-01
    2.4580831548707955e+00 -7.2455973437146681e-01
    2.7398666809504553e+00 -5.8060589800729012e-01
    3.2651478232443596e+00 -4.5215876367700036e-01
    4.1219456011379236e+00 -3.3932343091436418e-01
    5.5475299268514942e+00 -2.4893037268330773e-01
    8.1851394252492380e+00 -1.7293970149527593e-01
    1.4306325824125057e+01 -1.0410424032891669e-01
    3.3058741251485387e+01 -4.8317621926718103e-02
    1.2378034579382283e+02 -1.4708018319332461e-02
    1.3289895241960487e+03 -4.0825169257547667e-03
    1.7097502716322413e+02 -1.3231009359419798e-02
    6.2156414493716504e+01 -2.6243820965378750e-02
    2.5326013275133249e+01 -5.9158590880431704e-02
    1.2461613809312949e+01 -1.1300485286622522e-01
    7.6748822853835241e+00 -1.7844152503375907e-01
    5.2903633213576526e+00 -2.5800481001641190e-01
    3.9855382105182966e+00 -3.5091181149983702e-01
    3.2255335250174073e+00 -4.5909822400042444e-01
    2.7636638994285390e+00 -5.8414555668748047e-01
    2.5061210874460991e+00 -7.2495420648365028e-01
    2.3728021647800515e+00 -8.7563926578773099e-01
    2.3191963053398612e+00 -1.0148029039402739e+00
    2.3096252803211734e+00 -1.1321685656931153e+00
    2.3091296273999888e+00 -1.2021883421162245e+00
    2.3156207949295244e+00 -1.2295375034316509e+00
    2.3134544663193548e+00 -1.2096976986863408e+00
    2.3040825100922881e+00 -1.1446098268983018e+00
    2.2977072391703461e+00 -1.0231255415562883e+00
    2.3473771670269850e+00 -8.6295358367819130e-01
    2.5233256734738228e+00 -6.9048023829192284e-01
    2.9015900595525310e+00 -5.3290131988815348e-01
    3.6020072301868100e+00 -3.9754743988809066e-01
    4.8258983292700615e+00 -2.8768127871550614e-01
    7.1423328568230335e+00 -1.9700702523687375e-01
    1.1967858647720355e+01 -1.2122893955584514e-01
    2.8232693334823267e+01 -5.6808610843148061e-02
    1.2309315503216568e+02 -1.5390667940379018e-02
    3.1512311778682800e+02 -5.0254930288499370e-03
    8.6915030866313913e+01 -1.7320519165710011e-02
    3.3353517647483741e+01 -4.3080539197122056e-02
    1.6501664300486237e+01 -8.5248896884806427e-02
    9.4878913947520918e+00 -1.3945836878328646e-01
    6.3388284980033252e+00 -2.1088330744287861e-01
    4.5489205498173098e+00 -3.0001797714057621e-01
    3.5089833271478259e+00 -4.0728152597510486e-01
    2.8955065016597743e+00 -5.3288847968282638e-01
    2.5483502919854129e+00 -6.8062942501263546e-01
    2.3779351649144371e+00 -8.4198850206376974e-01
    2.3094730125323815e+00 -9.8243825418223329e-01
    2.2950474132314054e+00 -1.0749410200163467e+00
    2.2897013778861788e+00 -1.1079807247716273e+00
    2.2934424349790397e+00 -1.1065909861519301e+00
    2.3014177128479893e+00 -1.1041449226546411e+00
    2.3021768250138175e+00 -1.1080246793727426e+00
    2.2968943009533285e+00 -1.1002043275331117e+00
    2.2893811137379130e+00 -1.0437866688507234e+00
    2.3139659742817726e+00 -9.1297850406929182e-01
    2.4379018181535623e+00 -7.3919131347690503e-01
    2.7526087224837652e+00 -5.7100550445507403e-01
    3.3962277497949542e+00 -4.2367100138300096e-01
    4.6485864894925975e+00 -2.9819620649871986e-01
    7.0153492875903725e+00 -1.9768613520331943e-01
    1.1806251181951193e+01 -1.2068381530377414e-01
    2.8559095618412162e+01 -5.3935628437630605e-02
    1.2669209299808277e+02 -1.3505543398988006e-02
    3.0944315273239999e+02 -5.9057126433258982e-03
    6.7738652837891010e+01 -2.1109667857028412e-02
    2.6390163656988282e+01 -5.2989036890650563e-02
    1.3804376082292933e+01 -9.3078492299856597e-02
    8.6264634233731705e+00 -1.5039873365299669e-01
    5.8816013237356648e+00 -2.2619102318901507e-01
    4.2265448164803834e+00 -3.2364533992484773e-01
    3.2674700142641981e+00 -4.4213121695346030e-01
    2.7235950051261479e+00 -5.8424747699059010e-01
    2.4429430444700539e+00 -7.4857559234769022e-01
    2.3184327582420448e+00 -9.0044933203174249e-01
    2.2880450508246999e+00 -9.9238770665233933e-01
    2.2903976003531721e+00 -9.9508844535610319e-01
    2.3159114542462578e+00 -9.4955659812502502e-01
    2.3400022036855548e+00 -9.0890462593349441e-01
    2.3448782575027511e+00 -9.1393597073838362e-01
    2.3324088615591583e+00 -9.5430483625148577e-01
    2.3068420173280293e+00 -1.0030879422441885e+00
    2.2944997548181738e+00 -9.9948655081312077e-01
    2.3186266444393708e+00 -9.0150861146570727e-01
    2.4383753190350630e+00 -7.3668151543570137e-01
    2.7460997757997929e+00 -5.6758942121743483e-01
    3.4069705048245695e+00 -4.2017189897971352e-01
    4.8071122925960754e+00 -2.9017459522853289e-01
    7.7632883322023147e+00 -1.8148235113674563e-01
    1.4099110102085236e+01 -1.0493977484470959e-01
    3.4218924971281695e+01 -4.7213172960489491e-02
    1.2770362058980497e+02 -1.4130865595565178e-02
    2.2080978584453240e+02 -5.7728051743727539e-03
    5.8551542454354198e+01 -2.2632277154741556e-02
    2.5743691463867666e+01 -5.2803174643364224e-02
    1.4040793860372954e+01 -9.2205806728972842e-02
    8.7664842011294031e+00 -1.4745169981096806e-01
    5.8682689036882936e+00 -2.2728458794661377e-01
    4.1271682563907506e+00 -3.3242831622258706e-01
    3.1726426548419737e+00 -4.6269615792518459e-01
    2.6434435291530769e+00 -6.1903352114493371e-01
    2.3980229096286609e+00 -7.8428268503848064e-01
    2.3107151528797698e+00 -9.0820987901237682e-01
    2.3020531263444735e+00 -9.3137298352312814e-01
    2.3616686235021769e+00 -8.6957693440259587e-01
    2.4501900676776915e+00 -7.9705952685402415e-01
    2.4767446122901866e+00 -7.7141210154247053e-01
    2.4242268143234069e+00 -8.0356009260271133e-01
    2.3741117609599414e+00 -8.7393929656333058e-01
    2.3236373439224725e+00 -9.5157541313941507e-01
    2.3084369179465800e+00 -9.6213106490663103e-01
    2.3368850140384017e+00 -8.6347325863462021e-01
    2.4890744013285322e+00 -7.0132424619588973e-01
    2.8361737466255539e+00 -5.3739656419001969e-01
    3.5527759880321810e+00 -3.9677102674011810e-01
    5.1237898670198687e+00 -2.7122264155260045e-01
    8.8311566392476308e+00 -1.5932446429482428e-01
    1.8016601151875616e+01 -8.1258408586850475e-02
    4.2475449276989266e+01 -3.6950866968771631e-02
    1.6162188379099734e+02 -1.1873399158593754e-02
    3.0321392179031983e+02 -7.0551739752266075e-03
    6.9327877124926758e+01 -2.0771176914645192e-02
    2.8599155198390207e+01 -4.7203562467578813e-02
    1.6332022370018709e+01 -8.2003836184912873e-02
    9.6134954801565371e+00 -1.3745728485406999e-01
    6.0102571022204163e+00 -2.2518195541271957e-01
    4.0843514478587624e+00 -3.3849238092725487e-01
    3.0899488286707912e+00 -4.8293499680018781e-01
    2.5794274730752949e+00 -6.4828821880655685e-01
    2.3678607009623414e+00 -8.0980531115846854e-01
    2.3141937045880137e+00 -8.9646046030794380e-01
    2.3433403028037421e+00 -8.7178559224863561e-01
    2.4505415518393394e+00 -7.8497609508743216e-01
    2.5469196282497304e+00 -7.3254173691712310e-01
    2.4813476415608764e+00 -7.4095055904275053e-01
    2.3946425612840820e+00 -8.0221046942039653e-01
    2.3621686731141462e+00 -9.0126281421353527e-01
    2.3196254143087165e+00 -9.7772292712658448e-01
    2.3094116168793870e+00 -9.5554794205533611e-01
    2.3627025533542927e+00 -8.2490289852835541e-01
    2.5756957805806739e+00 -6.5598783495126034e-01
    2.9964046801429589e+00 -4.9936418629283857e-01
    3.7189067675630594e+00 -3.6957330891341389e-01
    5.2390528425007066e+00 -2.5846440678835597e-01
    9.5672985544451130e+00 -1.4969571464421966e-01
    2.5777561186770171e+01 -6.1111356350187093e-02
    5.7373089370829952e+01 -2.8011568778125082e-02
    2.8492656218386475e+02 -9.1250996430537138e-03
    3.5594987641409557e+02 -5.3043513137468554e-03
    9.4791111683439823e+01 -1.6238399910398011e-02
    3.8327556523799487e+01 -3.6378614872774030e-02
    1.9899954489634077e+01 -6.8582010505815846e-02
    1.0583489498891105e+01 -1.2736849887558441e-01
    6.0022746322175662e+00 -2.2614335958053428e-01
    3.9429186750213723e+00 -3.5220290615082323e-01
    2.9703657858543453e+00 -5.0758351235689059e-01
    2.5120530452600276e+00 -6.7944963934358971e-01
    2.3400368600797798e+00 -8.2825104770803082e-01
    2.3152805109587136e+00 -8.8883003547852424e-01
    2.3570298332380024e+00 -8.4190091105524856e-01
    2.4523179425302359e+00 -7.6653452748133766e-01
    2.4745418525482710e+00 -7.7020475438432290e-01
    2.3415119793068673e+00 -8.2034371917284787e-01
    2.3006477754683501e+00 -9.1768349009850481e-01
    2.3215180643563054e+00 -1.0290959398826880e+00
    2.2951063395395730e+00 -1.0582789950952693e+00
    2.2922311523499790e+00 -9.6567404261001766e-01
    2.3969976275864577e+00 -7.9447676309629889e-01
    2.6843946803344050e+00 -6.1674936315881368e-01
    3.1327174731925607e+00 -4.7007288376740752e-01
    3.8146438470450161e+00 -3.5512441428592201e-01
    5.1233800927329947e+00 -2.5540754452276471e-01
    9.1333728662074609e+00 -1.5382451333370750e-01
    3.0176742525849082e+01 -5.2454281991344012e-02
    6.8736100693273002e+01 -2.1505865018541695e-02
    2.4886280063778483e+02 -9.9219816469852014e-03
    1.9519532896899645e+03 -4.0825169257547667e-03
    1.5278181405354692e+02 -1.0934385364888487e-02
    5.3124288123944268e+01 -2.5544797945373589e-02
    2.3963174795552447e+01 -5.7073081006066777e-02
    1.0894663873928423e+01 -1.2466202033485559e-01
    5.7190217708081734e+00 -2.3849817294479853e-01
    3.7247303049246541e+00 -3.7325889713516275e-01
    2.8570632751770457e+00 -5.3313606784347389e-01
    2.4649385937298987e+00 -7.0209413953828048e-01
    2.3294561763108681e+00 -8.3745004956620173e-01
    2.3162616154489557e+00 -8.8007424907349119e-01
    2.3541598579948988e+00 -8.4101427233161119e-01
    2.3976995048335534e+00 -8.1679095810438329e-01
    2.3455574759826665e+00 -8.9192403690786004e-01
    2.2405160423541979e+00 -9.7855056321502765e-01
    2.2848280722571594e+00 -1.1108034290287794e+00
    2.3193022344060963e+00 -1.1806299565290210e+00
    2.2737735692076209e+00 -1.1288577548762979e+00
    2.2859770266868482e+00 -9.7607041236109360e-01
    2.4356897324427793e+00 -7.7519539485767153e-01
    2.7447984910288854e+00 -5.9444660470473432e-01
    3.1590745192064213e+00 -4.6091023778263596e-01
    3.7814787521546704e+00 -3.5550054558567479e-01
    4.9257012975502050e+00 -2.6354918025753138e-01
    8.2208585279582849e+00 -1.6450368705706320e-01
    2.5954886880795808e+01 -5.9513032428303497e-02
    7.1809720096414523e+01 -2.3368667826922665e-02
    1.7375175812121168e+02 -7.4043237521108380e-03
    5.5276552465060320e+02 -4.0825169257547667e-03
    2.4691248392779750e+02 -7.9883454889349663e-03
    8.6134065680671810e+01 -1.8296452898855248e-02
    2.8082417618725351e+01 -5.1339434555529799e-02
    1.0759234351292504e+01 -1.2934639727717281e-01
    5.3166977500929198e+00 -2.5752139346425285e-01
    3.5308345434408026e+00 -3.9501132949620293e-01
    2.7788957369569891e+00 -5.5042172272919243e-01
    2.4456388990412417e+00 -7.0732308805948918e-01
    2.3309128554382097e+00 -8.2604981684787537e-01
    2.3276142426463671e+00 -8.6785315047964440e-01
    2.3528040201870239e+00 -8.6074372173328118e-01
    2.3564505677644108e+00 -9.0403567919176064e-01
    2.2859675521516634e+00 -1.0347035292227655e+00
    2.2422075413455822e+00 -1.1454361827483359e+00
    2.3283024893407567e+00 -1.2742078923431110e+00
    2.3215745014790539e+00 -1.2481935408943519e+00
    2.2691254213190444e+00 -1.1397750916335727e+00
    2.2957930191766311e+00 -9.6328344590733617e-01
    2.4457349294476209e+00 -7.6301131555896717e-01
    2.7139252108121243e+00 -5.9702703998219386e-01
    3.0907964039527553e+00 -4.7201998938573347e-01
    3.6782994532131541e+00 -3.6837041200924597e-01
    4.7685248688641462e+00 -2.7332531624706519e-01
    7.7275094065793022e+00 -1.7338663354277670e-01
    2.1431662186485838e+01 -6.8942719754386539e-02
    6.7976065057786215e+01 -2.4644657283786744e-02
    8.0352624201108404e+02 -6.9849019258444375e-03
    1.6587564027731660e+03 -4.7702800817272977e-03
    2.7628553423587681e+02 -4.1894280250494844e-03
    1.0543913729314396e+02 -1.8648256362000078e-02
    2.6868747244897801e+01 -5.3272123720157646e-02
    1.0056609866467245e+01 -1.4042051692017529e-01
    4.9056301562071889e+00 -2.7718062369435753e-01
    3.3920297102290871e+00 -4.1220900742489519e-01
    2.7586774022036842e+00 -5.5400339793713138e-01
    2.4700490926976637e+00 -6.9200544245965090e-01
    2.3574415408702860e+00 -7.9258313967139371e-01
    2.3494470664104399e+00 -8.4194083538424325e-01
    2.3534045100359133e+00 -8.6976698219547799e-01
    2.3271404481354510e+00 -9.5866434637293330e-01
    2.2645020332076888e+00 -1.0941026568331944e+00
    2.2643479778859157e+00 -1.2048945538657592e+00
    2.3324588086398541e+00 -1.2724254106801700e+00
    2.2899572363589002e+00 -1.1836340624314985e+00
    2.2643910001893035e+00 -1.0783524887442646e+00
    2.3214756840398048e+00 -9.2258453298895349e-01
    2.4481310133987271e+00 -7.5248127288640609e-01
    2.6679475936455566e+00 -6.0978718317697334e-01
    3.0089560920549490e+00 -4.8675393857793064e-01
    3.6000093539433480e+00 -3.8089677642245784e-01
    4.7658397181693415e+00 -2.7829889033696842e-01
    7.6781344669341403e+00 -1.7549155185580251e-01
    1.8194027105087233e+01 -7.7026142476616391e-02
    5.0970699057211746e+01 -2.9626303972593995e-02
    2.1444103324256986e+02 -9.1102402967712850e-03
    1.5615626688370928e+03 -4.0825169257547667e-03
    4.3118209188931957e+02 -6.7072773615280334e-03
    7.4103563776941840e+01 -2.1601432331258483e-02
    2.4849581064054412e+01 -6.0707692289894290e-02
    8.9577206472768403e+00 -1.5702241155578006e-01
    4.5844731346945622e+00 -2.9716316830149531e-01
    3.3078944209097125e+00 -4.2230679786950864e-01
    2.7862858158983252e+00 -5.4572670657825972e-01
    2.5345530518203820e+00 -6.5910028886284400e-01
    2.4268576217160902e+00 -7.4125055211328883e-01
    2.4016707943253679e+00 -7.8837956444374069e-01
    2.3774780508801534e+00 -8.3396729278448389e-01
    2.3181692372699585e+00 -9.1941339707849845e-01
    2.2581092613515352e+00 -1.0259556197999466e+00
    2.2637780126746883e+00 -1.1227755144266243e+00
    2.2914444482313456e+00 -1.1450631618371137e+00
    2.2738265850625528e+00 -1.0794597017642866e+00
    2.2925314764592550e+00 -9.9988631297909858e-01
    2.3499893827618314e+00 -8.7891758351561899e-01
    2.4512225929131874e+00 -7.4358354345966404e-01
    2.6336274569345357e+00 -6.1562164241988460e-01
    2.9908262536477714e+00 -4.9307976442710311e-01
    3.6241079564041301e+00 -3.7987428070180806e-01
    4.8968914679555180e+00 -2.7351764913261928e-01
    7.8803453329210589e+00 -1.7353912075571362e-01
    1.6651997935887174e+01 -8.4050148155622659e-02
    4.5490455621070446e+01 -3.4162442190263112e-02
    1.8533414423964544e+02 -8.9396474602324739e-03 1. 0.
    3.1272527438082204e+02 -8.9320884280571534e-03
    5.7722186096111621e+01 -2.5397763399518360e-02
    1.9766658330493673e+01 -7.3900175728556741e-02
    7.6197129779173292e+00 -1.7786004748604253e-01
    4.3139194799050458e+00 -3.1338342957672971e-01
    3.2703856433442811e+00 -4.2901306107465575e-01
    2.8322542218105680e+00 -5.3508893589871342e-01
    2.6182269453309654e+00 -6.2078198719313293e-01
    2.5150345538261654e+00 -6.8268923808992577e-01
    2.4702915724612371e+00 -7.2347013669103555e-01
    2.4179527798143581e+00 -7.6555897859560373e-01
    2.3484880931472847e+00 -8.2507042440143363e-01
    2.2995933122897987e+00 -9.1939023506603246e-01
    2.2784966599881922e+00 -1.0062601329367140e+00
    2.2814869927046799e+00 -1.0328150546762529e+00
    2.2960657762996117e+00 -1.0106726874422318e+00
    2.3213281965086598e+00 -9.5150929677449936e-01
    2.3550878096188330e+00 -8.5546568601867368e-01
    2.4434149226904278e+00 -7.4032106800321351e-01
    2.6358786178104223e+00 -6.1326579412484727e-01
    3.0316099256543625e+00 -4.8515629188021414e-01
    3.7626444081296015e+00 -3.6804197760332824e-01
    5.1811762716403118e+00 -2.6078182385898191e-01
    8.3242231836663034e+00 -1.6833375665065112e-01
    1.5937673724182357e+01 -8.8542636952728584e-02
    4.3629927613125830e+01 -3.5936233862407511e-02
    3.0745858428464942e+02 -1.0710812845685319e-02
    7.9264284990307203e+02 -5.9059667926148977e-03
    3.0466250013954857e+02 -6.3521140754346402e-03
    4.7072876163843603e+01 -3.3320214118131228e-02
    1.5316079865874750e+01 -9.1304863031356445e-02
    6.6617959862865250e+00 -1.9910803069183386e-01
    4.0960050716595884e+00 -3.2796741241605298e-01
    3.2065641684446975e+00 -4.3899542646980294e-01
    2.8285289458291025e+00 -5.3445408786432524e-01
    2.6514251311381898e+00 -6.0594789652005188e-01
    2.5479149638777865e+00 -6.5940509369237210e-01
    2.4802741929071863e+00 -6.9784836578098575e-01
    2.4320950871319673e+00 -7.3042289386158121e-01
    2.3963157066694309e+00 -7.8112566657956917e-01
    2.3365996379320131e+00 -8.7168855158470349e-01
    2.2936589135260488e+00 -9.5845445378553829e-01
    2.2982592859161604e+00 -1.0112466118538943e+00
    2.3140477993166324e+00 -1.0104488433208152e+00
    2.3138921371269845e+00 -9.5294507540321449e-01
    2.3390096506940727e+00 -8.5872463792486375e-01
    2.4369783286757376e+00 -7.3231139331108042e-01
    2.6754725680855733e+00 -5.9491059527647527e-01
    3.1294066282913584e+00 -4.6342914995743495e-01
    3.9445493481906393e+00 -3.4877114399807213e-01
    5.5085899210280758e+00 -2.4588474647442701e-01
    8.8099575703842223e+00 -1.5820093552823883e-01
    1.6777697581439561e+01 -8.5437962607803189e-02
    5.2277694219502848e+01 -3.1557961545066057e-02
    2.0428772681367874e+02 -9.7604141298184809e-03
    4.1641669850407061e+03 -4.0825169257547667e-03
    2.3612781246981385e+02 -1.1281662710398594e-02
    3.5408558169159178e+01 -3.9757101663637148e-02
    1.2957299176525595e+01 -1.0385233491700577e-01
    6.1964855296932191e+00 -2.1198097157501056e-01
    3.9594648450341290e+00 -3.3747788853220084e-01
    3.1271811951638853e+00 -4.5170193263399205e-01
    2.7617914845551677e+00 -5.5213160939237604e-01
    2.5842927677042682e+00 -6.3188647478401583e-01
    2.4802644565438068e+00 -6.9322439083247189e-01
    2.4176606776653031e+00 -7.3838490032251847e-01
    2.3783763154341497e+00 -7.7073076626917569e-01
    2.3490301797044144e+00 -8.2876952294348050e-01
    2.3116363469983621e+00 -9.1927270984630505e-01
    2.2877356456162330e+00 -1.0088060986069092e+00
    2.2962926452211088e+00 -1.0608282794048960e+00
    2.3055632377876827e+00 -1.0481237257554032e+00
    2.2953860791010707e+00 -9.6705521309897391e-01
    2.3392305030990999e+00 -8.4650228391156968e-01
    2.4875289820414666e+00 -7.0122275428955738e-01
    2.7878471818544210e+00 -5.5538565441286014e-01
    3.3310127041825530e+00 -4.2707460631650057e-01
    4.3033511479881144e+00 -3.1681047968631709e-01
    6.1459944827712736e+00 -2.2068580320152206e-01
    9.8816225480474902e+00 -1.4105726362218540e-01
    1.8655699234132957e+01 -7.8171042302274868e-02
    5.0726360503929897e+01 -2.9182578469211688e-02
    2.9949882086671698e+02 -8.0257859959300647e-03 1. 0.
    1.7274475914368693e+02 -1.0342104936830195e-02
    3.3237268077073708e+01 -4.3273622043220918e-02
    1.2341179408643136e+01 -1.0916701387691680e-01
    6.2613637991382625e+00 -2.0903257277286047e-01
    4.0691475547237728e+00 -3.3022464069211210e-01
    3.1277472923235550e+00 -4.5487526559219610e-01
    2.6981649894827280e+00 -5.6919680695847441e-01
    2.4916778551033434e+00 -6.7294359986112007e-01
    2.3897764569812310e+00 -7.6060122540104858e-01
    2.3376030785448565e+00 -8.2875749493451212e-01
    2.3094097466353150e+00 -8.8650818957070776e-01
    2.2931585917844881e+00 -9.5984040301810902e-01
    2.2848474584663201e+00 -1.0513839681730464e+00
    2.2875164920466160e+00 -1.1209048244364117e+00
    2.2928504724131895e+00 -1.1289434394795466e+00
    2.2923965580332522e+00 -1.0627393737023145e+00
    2.3074799214971780e+00 -9.3933290213817588e-01
    2.3936847217553026e+00 -7.8734756462874933e-01
    2.6109412491894868e+00 -6.2699095566954188e-01
    3.0390330371579526e+00 -4.8806277483553467e-01
    3.7717451346148252e+00 -3.6895114422053149e-01
    5.0386268289387708e+00 -2.6929222567738298e-01
    7.3023657709939265e+00 -1.8721262337613032e-01
    1.1428270847692666e+01 -1.2162743355195992e-01
    2.2633045213833746e+01 -6.6493819604740934e-02
    5.9439624976130432e+01 -2.6033003087476657e-02
    8.7457154295855059e+02 -5.7733159389938976e-03
    1.9519532896899645e+03 -4.0825169257547667e-03
    2.0097821217281867e+02 -1.0009503580106577e-02
    3.6333444099018983e+01 -4.0498731420539065e-02
    1.3862602806849321e+01 -9.9984707911962331e-02
    7.2357080952596826e+00 -1.8820172416890615e-01
    4.5209346229095910e+00 -2.9963131232668333e-01
    3.3206377398458264e+00 -4.2724846881624456e-01
    2.7455238215116702e+00 -5.5525136027544852e-01
    2.4686738118029399e+00 -6.8177739718866637e-01
    2.3426947773321611e+00 -8.0158751573691289e-01
    2.2944712214658947e+00 -9.0865684553784420e-01
    2.2878422881837350e+00 -1.0089452364421374e+00
    2.2955757975599882e+00 -1.1036228849269383e+00
    2.3106111787445314e+00 -1.1813322007858249e+00
    2.3057951470312039e+00 -1.1921856782514741e+00
    2.2980482940867022e+00 -1.1253050486613216e+00
    2.3053730539724180e+00 -9.9470795782914401e-01
    2.3720669002152284e+00 -8.3223274365619226e-01
    2.5546460672006117e+00 -6.6712598980455462e-01
    2.9231301892966575e+00 -5.2269449209993313e-01
    3.5634998803524724e+00 -3.9906542795729649e-01
    4.6428271180420717e+00 -2.9670064280085512e-01
    6.3701803489565858e+00 -2.1262622359171651e-01
    9.2275950478534110e+00 -1.4869395749576539e-01
    1.4508896738193863e+01 -9.6895728385520991e-02
    2.9263044592321215e+01 -5.0931088811968200e-02
    8.7293466391147973e+01 -2.0214429335510809e-02
    1.6016027333676827e+03 -4.0825169257547667e-03
    2.0149195171232266e+03 -4.0825169257547667e-03
    1.5572043045681744e+03 -6.0049057587296057e-03
    4.5942724697412785e+01 -3.3706347185440626e-02
    1.8509734120122577e+01 -7.8972450471457359e-02
    9.5511942406711263e+00 -1.4774137677523327e-01
    5.7193834025123458e+00 -2.4325024977733323e-01
    3.9284229385501543e+00 -3.6034629747246838e-01
    3.0523493695533190e+00 -4.8644317186758385e-01
    2.6031927501983994e+00 -6.2240998128460678e-01
    2.3820579071654833e+00 -7.5670417564167591e-01
    2.2865959041766462e+00 -8.8873651230964312e-01
    2.2595256956366874e+00 -1.0021705913287009e+00
    2.2676811970861248e+00 -1.0895925695786848e+00
    2.2740747212855261e+00 -1.1174380223355467e+00
    2.2724155633938690e+00 -1.0748398499830984e+00
    2.2911929912682241e+00 -9.6307262983581610e-01
    2.3773103477530326e+00 -8.1766817229684829e-01
    2.5690376167454545e+00 -6.6465590988738954e-01
    2.9451972472892685e+00 -5.2359507951476736e-01
    3.5692062779794194e+00 -4.0214202824248568e-01
    4.5720034200738402e+00 -3.0306915946840046e-01
    6.1702691237940179e+00 -2.2168084435332702e-01
    8.6299848825549201e+00 -1.5936593522376735e-01
    1.2613602929313469e+01 -1.1006069940092536e-01
    2.1385973152234797e+01 -7.0039764901002818e-02
    5.0072706146164158e+01 -3.7135622797965687e-02
    1.7446874632136982e+02 -1.2201409843035412e-02
    8.6753480686378691e+02 -4.0825169257547667e-03 1. 0. 1. 0.
    9.0364285192328182e+01 -2.2738726586478630e-02
    3.1606802946049868e+01 -5.1905397180199472e-02
    1.4715152461544662e+01 -9.9988024145723414e-02
    8.5647747206876499e+00 -1.6843162254045424e-01
    5.5173875401518249e+00 -2.6031071970320774e-01
    3.9393452304439167e+00 -3.6983708041828156e-01
    3.1044607148042540e+00 -4.9009799488158584e-01
    2.6645083578559334e+00 -6.1537067887054786e-01
    2.4387490781825334e+00 -7.3897799320442281e-01
    2.3362458261858103e+00 -8.4317590422623678e-01
    2.3067952417059461e+00 -9.0195141311412896e-01
    2.3138336025232320e+00 -8.9980608289168085e-01
    2.3637367422625850e+00 -8.3974857878147702e-01
    2.4785455874957916e+00 -7.3465553385853499e-01
    2.7125765899797649e+00 -6.1257571051520909e-01
    3.1218283803111966e+00 -4.9207118766625146e-01
    3.7996936978103473e+00 -3.7992816636118865e-01
    4.8326270641867337e+00 -2.8881739314243721e-01
    6.3854361626665890e+00 -2.1344093699387370e-01
    8.8669864846375521e+00 -1.5366778226340513e-01
    1.2619632255894478e+01 -1.0912600796247415e-01
    1.9248389701627190e+01 -7.4098756129556187e-02
    3.5589780549788259e+01 -4.3317185066342752e-02
    8.5094882207919198e+01 -1.9343791941857796e-02
    2.7583703171420029e+02 -1.0402482033110678e-02 1. 0. 1. 0. 1. 0.
    1.6655763589945067e+02 -1.0352700821654978e-02
    5.9994072952402689e+01 -2.8750102360484822e-02
    2.7003374367071725e+01 -5.7568373602009122e-02
    1.5182050465416411e+01 -9.5310536755554495e-02
    9.3189474311341343e+00 -1.5360976193335321e-01
    6.2309544028968489e+00 -2.2342452599690732e-01
    4.6003143787242262e+00 -3.0357777015601595e-01
    3.6585684587062963e+00 -3.8847997326744255e-01
    3.1467003645709419e+00 -4.7019583206225601e-01
    2.8897867387767682e+00 -5.3312356506029290e-01
    2.7991187285796348e+00 -5.6650598831576526e-01
    2.8160025110470515e+00 -5.6278365579822776e-01
    2.9584977857915473e+00 -5.2716469536668842e-01
    3.2482281957210954e+00 -4.6805739627807025e-01
    3.6779781921175712e+00 -3.9580504498735752e-01
    4.3342461574084981e+00 -3.2478944579756358e-01
    5.3825302862009270e+00 -2.5570503144711382e-01
    6.8782635608719405e+00 -1.9461171224117083e-01
    9.3112696207679733e+00 -1.4457420505158794e-01
    1.3020504174949629e+01 -1.0177354273254044e-01
    1.9147174616155798e+01 -7.1425222625420740e-02
    3.0486263929344791e+01 -4.7777756832217133e-02
    6.4497011712272197e+01 -2.5752435930943198e-02
    1.3080779288064068e+02 -1.1379423717947040e-02
    6.2688775359581632e+02 -4.7528748890151087e-03 1. 0. 1. 0. 1. 0.
    1.0847213087133043e+03 -6.6643011271786835e-03
    1.5721879392114303e+02 -1.0964213218985785e-02
    5.5086485670772902e+01 -2.7604451566021992e-02
    2.7705305623366449e+01 -5.1553601146641981e-02
    1.5743023398120778e+01 -8.6771845781089263e-02
    1.0293051425278374e+01 -1.2839203270417804e-01
    7.2960984675541338e+00 -1.7577589794998105e-01
    5.7870194685861920e+00 -2.2305443753739626e-01
    4.9024179573382662e+00 -2.6664028544269214e-01
    4.4971765118061544e+00 -2.9484431523981464e-01
    4.3322546173814782e+00 -3.0750543282714377e-01
    4.3780126762641238e+00 -3.0518012159626701e-01
    4.6657170215316350e+00 -2.8923177901877895e-01
    5.1147727032323678e+00 -2.6323129099691117e-01
    5.6771983150920429e+00 -2.3372358921495240e-01
    6.5795142490731733e+00 -2.0102782390089305e-01
    7.9934409479367874e+00 -1.6369105177290022e-01
    1.0295210115727022e+01 -1.2766599598703351e-01
    1.4166993975828113e+01 -9.3965139296831091e-02
    2.0292668165162990e+01 -6.5683259015002715e-02
    3.1602243615893919e+01 -4.5926531033497878e-02
    5.2377847327373772e+01 -2.8718809638147512e-02
    1.2798691040713359e+02 -1.5693036482617433e-02
    4.0575784980433690e+02 -5.6753061394319891e-03
    6.0060099575440358e+02 -4.0825169257547667e-03 1. 0. 1. 0. 1. 0. 1.
    0. 1.6437501695049459e+03 -4.0825169257547658e-03
    1.0877165823485119e+02 -1.5121393981645352e-02
    4.9049990470456365e+01 -3.1369554543792998e-02
    2.5264035286253737e+01 -5.3330234873253939e-02
    1.6845130111961424e+01 -7.9228266850397244e-02
    1.1932232203916557e+01 -1.0837665026429044e-01
    9.7295483158038074e+00 -1.3397906775786603e-01
    8.2812503959146859e+00 -1.5751318055617333e-01
    7.4665821249932938e+00 -1.7510551337035651e-01
    7.2259396141918781e+00 -1.8262689722387010e-01
    7.3549757218204261e+00 -1.8053534068074548e-01
    7.7763886646922726e+00 -1.6987649089389012e-01
    8.7749180332060526e+00 -1.5315731349975548e-01
    9.7697583531960390e+00 -1.3543312358136336e-01
    1.1460098597709619e+01 -1.1648029911490047e-01
    1.4083022478725052e+01 -9.3951254020916017e-02
    1.8349301101725352e+01 -7.2576887013677566e-02
    2.4714645328822410e+01 -5.2364359633734425e-02
    3.8916377279159001e+01 -3.6382999491086622e-02
    7.2851385852552397e+01 -2.1503063787086090e-02
    2.0535562879642777e+02 -1.3019279110846410e-02
    2.2181124766487392e+03 -4.4942151738254221e-03
    1.0586865193477545e+03 -4.0825169257547676e-03 1. 0. 1. 0. 1. 0. 1.
    0. 1. 0. 1. 0. 5.8282565922773904e+02 -5.7901636819869271e-03
    1.4815383406033871e+02 -9.0538459053905139e-03
    9.8031730031789792e+01 -1.6005442926582705e-02
    6.3234736490664275e+01 -2.2119760090339488e-02
    5.3391877258107542e+01 -2.6845995809090740e-02
    4.1276638403325293e+01 -3.1845063202476348e-02
    3.3200268642248190e+01 -4.3748408739725832e-02
    2.8042059503167128e+01 -4.7282947313649758e-02
    2.5762022314356823e+01 -5.3138804531602080e-02
    2.4444261955435547e+01 -5.6622819356502457e-02
    2.2362695328761117e+01 -6.0338355633679230e-02
    2.4245959626177065e+01 -5.6295001396246956e-02
    2.7133958788164872e+01 -5.1366537725329946e-02
    3.1646879981223869e+01 -4.2632279733660190e-02
    4.2201620063874131e+01 -3.3171027040129482e-02
    6.4456505846183475e+01 -2.2462882965646986e-02
    8.9794381116486363e+01 -1.6069086959074285e-02
    1.5117778314862551e+02 -1.1432202807312046e-02
    1.5194222447304870e+02 -9.0072944991701851e-03
    7.3572517660673316e+02 -5.7703939289486328e-03 1. 0. 1. 0. 1. 0. 1.
    0.</input_scale>
  <output_scale>
    5.2631578947368418e-01 4.9999999999999994e-01 5.2631578947368418e-01
    4.9999999999999994e-01 5.2631578947368418e-01 4.9999999999999994e-01
    5.2631578947368418e-01 4.9999999999999994e-01 5.2631578947368418e-01
    4.9999999999999994e-01 5.2631578947368418e-01 4.9999999999999994e-01
    5.2631578947368418e-01 4.9999999999999994e-01 5.2631578947368418e-01
    4.9999999999999994e-01 5.2631578947368418e-01 4.9999999999999994e-01
    5.2631578947368418e-01 4.9999999999999994e-01</output_scale>
  <inv_output_scale>
    1.8999999999999999e+00 -9.4999999999999996e-01
    1.8999999999999999e+00 -9.4999999999999996e-01
    1.8999999999999999e+00 -9.4999999999999996e-01
    1.8999999999999999e+00 -9.4999999999999996e-01
    1.8999999999999999e+00 -9.4999999999999996e-01
    1.8999999999999999e+00 -9.4999999999999996e-01
    1.8999999999999999e+00 -9.4999999999999996e-01
    1.8999999999999999e+00 -9.4999999999999996e-01
    1.8999999999999999e+00 -9.4999999999999996e-01
    1.8999999999999999e+00 -9.4999999999999996e-01</inv_output_scale>
  <weights>
    <_>
      -2.4205505044311306e-03 1.4350020023881954e-03
      6.4644512343053386e-04 4.8633238430626955e-04
      3.7031664159510754e-04 -1.6347347408353825e-03
      -1.2924630049669246e-03 1.7709373011530339e-03
      7.3201703133273985e-04 8.4176117600069666e-04
      -2.2103004689572893e-03 2.5701767177842448e-03
      -4.6055566270852285e-04 -1.2959532608692174e-03
      1.2146696274049592e-03 1.3501453984548978e-03
      1.2006486140541946e-03 -7.9047858364686484e-04
      5.2702745043081700e-04 1.4969797402949717e-03
      1.8790840525207588e-03 -8.0425485038962896e-05
      -2.1396785201270195e-03 3.8027502702400544e-04
      5.4070604485474824e-04 1.9483366631563347e-03
      -1.1016644708152256e-03 1.9584281285844650e-03
      1.8217483075673349e-03 3.5326222553837576e-04
      -2.4665188888353640e-04 -1.5093692338370161e-03
      2.4117844440002967e-03 -1.0806241320293882e-03
      -5.1099068755931939e-04 1.1185571773340256e-03
      2.2493344026269821e-03 -5.7268389394363574e-04
      1.0421095318872201e-03 -4.2355703764858566e-04
      -6.8650041093578490e-04 -5.9625754962180889e-04
      -2.3240753129875041e-03 2.4844909353482392e-03
      -4.5812788503573639e-04 -1.3234199368159457e-03
      -1.3117890958410138e-03 -1.2971892833947409e-03
      1.9286432407072259e-03 2.4776955337968321e-03
      4.4171985651576075e-04 -6.4402036669152440e-04
      -1.9063480179137810e-04 -6.2389818836504937e-05
      -1.3084339282737141e-03 1.2973360679489304e-03
      2.4794315242453327e-03 -1.6896887634146917e-04
      2.3502187914656940e-03 -1.0219549636833831e-03
      1.7979035016160393e-03 -2.3143435270049804e-03
      -6.7635147751573383e-04 1.7444478761288152e-03
      4.0994780195165853e-04 -1.1371349919335483e-03
      -2.1511456119164040e-03 2.5932848588354198e-03
      -1.2192245718567042e-03 6.2259539968795340e-04
      -2.4739335763265301e-03 -5.5506389869876402e-04
      9.3319818898351112e-04 2.1824289240875705e-03
      -2.4770198212941850e-03 1.8768121412062618e-03
      -1.7568050742993696e-03 1.5740954205610838e-03
      7.9169482570736166e-05 -1.6393361948915856e-03
      8.5506088794419836e-04 -1.9247983747517560e-05
      6.6870247944575878e-04 -4.2905209528778420e-04
      -3.3062849336926858e-04 -2.3421222666677173e-03
      1.2299060377926766e-03 -2.4927376995615520e-03
      -1.7246591510148518e-03 -1.2900388111961947e-03
      2.5464509944050323e-03 -1.7040511063194179e-03
      1.5449500455183046e-03 9.8159894791508451e-04
      -1.6395223755152628e-03 -6.2404130075466161e-04
      -2.2485511052531527e-03 1.8022481891010835e-03
      -4.4152206997778156e-04 -1.8918223063722698e-03
      -2.2416187783284368e-03 6.2184905871835044e-04
      -1.6920375231702128e-03 2.0545627749029372e-03
      1.7838333522198731e-03 2.4487077835312386e-03
      1.1224307161860746e-03 -1.6823447024652909e-03
      5.4541847843917401e-04 6.0996024439176940e-04
      2.3259139436933728e-03 -2.3700064898373829e-03
      -6.5953359430298781e-04 -1.0514735783938968e-05
      -1.9522473752574938e-03 2.2235033654386250e-03
      1.0883563210602821e-03 1.4981828946361202e-03
      -4.3433968840805767e-04 -2.2711853519362364e-03
      -2.4246431630121283e-03 -1.3042937008865172e-03
      -1.5435323993906660e-03 -2.0594743154695125e-04
      1.6973317345745659e-03 1.3453353779394883e-03
      1.4410643926382886e-03 -2.1032797575618778e-03
      5.1696284291902759e-04 -1.1462587045603955e-03
      1.3271121066285687e-03 2.0349253709197814e-03
      -2.0789439996259971e-04 -2.6278472881858567e-03
      -6.2137547830144280e-04 -5.6314481290179158e-04
      -5.8884356465172384e-04 1.1347947913265721e-03
      1.8158400495619021e-03 1.2053427000363397e-03
      -3.3871773124435558e-04 1.5782343508407672e-03
      2.3643370250245712e-03 1.4576160908754509e-03
      1.2876331728093708e-03 -2.2223573664666742e-03
      -1.2420822153991372e-03 1.1362399353808165e-03
      1.7100964781361510e-03 -5.0338429278175907e-04
      -3.0546605958209138e-04 4.3034523465551626e-04
      -6.4746045629228421e-04 -1.6978176696383109e-03
      -8.7716089684717268e-04 1.3099967938766299e-03
      2.5309688048468135e-03 2.2139388332729913e-03
      1.2271952495767201e-03 -1.3760202161781077e-03
      2.2781054343213652e-03 1.1187243823972766e-03
      -5.9168778960385607e-04 9.0443563466739970e-05
      1.1737100848109752e-03 1.6946094836335348e-03
      1.4360221092004171e-03 1.5096901934200362e-03
      1.2055304274241829e-03 -2.3970962661184411e-03
      1.1189925039224962e-05 2.4339091520092721e-03
      6.8246957020225065e-04 -1.9466637872566574e-03
      1.9128338834277757e-03 1.1872493140987470e-03
      -1.6671804626521374e-03 -9.2280886061430151e-04
      -9.0378716211687784e-04 1.5028303414525847e-05
      1.5830882291244469e-03 -2.0735257460117373e-03
      -1.3935019467597616e-03 4.7332415432493305e-04
      2.0341573810042654e-03 1.5534700032835617e-04
      1.6897684656261975e-04 2.0980553297524130e-03
      -1.2725018011645519e-03 1.5074175020667185e-03
      -1.1927308437742850e-03 6.3270803180099126e-04
      1.2009875370347731e-03 -1.4028178347273699e-03
      -1.8407066614731700e-03 9.7811846455308940e-04
      -2.5555596028841446e-04 1.1701808567341364e-03
      7.0336764253263877e-06 -1.0000431699142614e-03
      -2.2141343502134940e-03 -1.6687057698110078e-03
      1.1007261996600771e-03 -1.6939208097205450e-03
      3.5574447253273496e-04 -2.6434521257609127e-03
      7.4932379401512360e-04 -1.0962931057807044e-03
      2.0796859914649882e-03 -1.3826350646334250e-03
      1.2133118845778682e-04 1.2703957711136737e-03
      -1.9114526515396119e-03 -1.3823455460982696e-03
      2.3022513274066556e-03 2.5358567994682784e-03
      -1.5442369473697430e-03 1.7981362358265537e-04
      4.9164853528702494e-05 -1.8031647956547069e-03
      -2.4879459553097151e-03 2.1383652794560544e-03
      -1.7063002883048932e-03 -1.2903812449038034e-03
      2.0691899488953155e-03 2.3874476647723678e-03
      -1.2440421304832857e-03 1.5220685602870521e-03
      2.0441314938599983e-03 3.2837587542554819e-04
      -1.0534584426186715e-03 1.0561926733710196e-05
      -1.6573543767274741e-03 -1.1520808882558549e-03
      1.5300531944796616e-04 5.5172562797671455e-04
      1.7044516138464299e-03 -1.3623467074084313e-03
      -2.4525933053392117e-03 9.2017117878516236e-04
      -2.3897093741088778e-03 -1.4095143786212968e-03
      1.3478005048429961e-03 2.2275246950588250e-03
      3.6420087275450399e-04 5.5866179879609016e-04
      2.2911420388990705e-03 1.5457078338251048e-03
      8.2888157329929959e-04 1.9438164838383580e-03
      -2.8945369491630945e-04 2.8560738393403585e-05
      -2.2120246918154725e-03 1.3647823817089042e-03
      1.4471571075159537e-03 1.9716232595005691e-03
      -1.2804791524286005e-03 6.7518982672510366e-05
      2.2473935682637883e-03 2.5395760880831206e-03
      2.0356583424529263e-03 -1.6138746992204096e-03
      -1.3125068490776859e-03 -2.4967956905256933e-04
      9.9626523151477467e-04 -2.2087560357629669e-03
      -1.1333992639877570e-03 -2.4273224828371152e-04
      7.7630524580477305e-04 -1.1719426692489087e-03
      -2.1526167959436096e-03 6.9756280721370938e-04
      -1.7932330600998283e-03 2.2032823546913132e-03
      1.6967791950376206e-03 -4.6670675607554966e-04
      1.9657832172314212e-03 4.7572160320977859e-04
      2.4196172310331802e-05 -1.8023716354937927e-03
      -5.5313062079023116e-04 -7.7810070075995657e-04
      7.8924255296625189e-04 -1.8539894772010110e-03
      5.8732082178827090e-04 -1.4364542198512952e-05
      -3.7005197919411916e-04 -1.3051920236366695e-04
      5.1243703799553448e-04 -4.5621173344591185e-04
      -2.0872351248095214e-03 1.5649932360349626e-03
      3.6981424496011366e-04 7.2743027414240500e-04
      2.5460278507528199e-03 2.5365933194760764e-03
      2.5158350421405724e-03 -2.3615546120955722e-03
      -1.2583764613015537e-03 -1.6633140146560046e-03
      -1.8493254841341802e-03 1.9246471609057954e-03
      -1.5308133917483928e-03 8.5661101783838774e-04
      1.1633602907073620e-03 1.1636892052986827e-03
      2.3952945647002163e-03 -2.2650504756487467e-03
      2.5287807167435040e-03 -1.3288081774388873e-03
      -7.6078269073251144e-04 -2.3974205932407581e-03
      -6.1567097556772905e-04 -2.4550451659969101e-03
      -2.0194665297914079e-03 -4.5393484599494074e-04
      2.0670526686705610e-03 -1.4286995200401475e-03
      1.5193755833401176e-03 1.6001437509212948e-03
      6.6061854525575404e-04 7.5144454020521138e-04
      -1.5832582881968548e-03 -8.5068829274626879e-04
      2.3305822256111386e-03 -1.2878606820544620e-03
      4.1478542558612589e-04 -1.2017254463562359e-03
      -4.4069246579095638e-04 -1.5635863704909340e-03
      -2.0983871093812170e-05 1.0026498544624348e-03
      1.1317690796402345e-04 -5.1452835386936024e-04
      2.1118045128503617e-03 1.0621802801247557e-03
      2.5321294644884951e-03 -1.1390643432238222e-03
      -2.0036757981347496e-03 1.7314170889499391e-03
      6.9629191236917293e-06 2.0688158345708263e-04
      -1.2167102806306606e-03 -8.4588001560312830e-04
      -2.3932734020564923e-03 -1.3774006877800213e-03
      -1.7264958234849092e-03 -2.4408056547225868e-03
      -1.3030197702342545e-03 1.4223462354478059e-03
      -1.8150743848009752e-03 1.0607679553529001e-03
      1.1457832214779072e-03 -7.8212374879075978e-04
      2.3380798146733057e-03 1.8903937641332677e-03
      1.6635556315882382e-03 -1.4068338249641932e-03
      -9.8548175249003325e-04 2.0415477694033586e-03
      -5.5714367179591465e-04 -1.0315932371620310e-03
      1.0769122495697385e-03 2.4710733247189838e-03
      2.5416189844978667e-03 -1.9039146338920316e-03
      1.1831019028352519e-03 -2.5421059998908171e-03
      -1.2245356532673952e-03 -2.1742310715474312e-03
      -1.8668345978028330e-03 -1.9338690314736229e-03
      -2.5050578573850932e-03 1.4227743381897441e-03
      7.9159633865735009e-04 -5.0154370499696079e-04
      1.6060724492816464e-03 1.2349777680585180e-03
      -5.5400799241743276e-04 -2.3163697883005286e-03
      4.3080196097002922e-04 2.2344551914591716e-03
      2.3535771013988589e-03 4.2502804680169017e-04
      -2.4637757559718390e-03 -1.7327611006138013e-03
      -3.2378306990859938e-04 1.6180144935055938e-04
      -1.2961637534946498e-03 -1.5411780484630919e-03
      -2.1537375971565132e-03 1.2317466357031616e-04
      1.5599706515948475e-03 1.1229033724529734e-03
      1.5818133332635399e-03 -1.9540008608226636e-03
      -2.2558202760087150e-03 1.9116751418444995e-03
      8.3133094378275629e-04 -2.2891370683491056e-03
      2.4031849968570462e-03 -1.3613195690988339e-04
      2.4622165196933540e-03 2.2469265872351492e-03
      2.4494425977865169e-03 -2.9295322001577306e-04
      1.6263391547587558e-03 -1.6648528357311662e-03
      1.8727763036764215e-03 1.8520790954860090e-03
      6.4534836527017534e-04 -1.7195487636912942e-03
      -4.6828258247767459e-04 -6.0614827423209833e-04
      4.4961056154226058e-04 -2.0485627850883813e-03
      2.2165655611570000e-03 -1.6492413479823576e-03
      1.4803770786422232e-04 -3.0716332438940645e-04
      1.2275297819493308e-03 -7.9261346353845356e-04
      -8.7650038045191661e-04 1.7467783934365863e-03
      2.1873663002375428e-03 1.7071729699708561e-03
      1.9790759716433563e-05 -1.6041026222094910e-03
      1.5395465515133505e-03 -2.2511662081614524e-05
      1.5536478704625903e-03 1.4058071744813801e-03
      1.2250369605975531e-04 5.7198692410962270e-05
      -2.0377801436181173e-03 -4.7540037857234395e-04
      2.5022676434635475e-03 3.3698534705258745e-04
      -4.5652052671102329e-04 -6.4871204061360674e-04
      -1.4368690111675427e-03 -1.8460580862454084e-03
      1.6788573759091644e-03 -2.3169259312089808e-05
      1.0241894484573474e-03 -5.2059452859064444e-04
      1.9369844312283346e-03 1.3613665550706595e-03
      -1.4609165515413313e-03 1.6353555721958823e-03
      -1.7484303080780345e-03 -9.8769956475628002e-04
      1.9895852174061689e-03 1.3500322622759257e-03
      -4.2483851452518773e-04 1.1806367047931671e-03
      -2.1505342640950440e-03 -1.4969507753817850e-03
      -1.0560767198640789e-03 -9.2839625224441541e-04
      -5.2891810164221848e-04 3.8078254351640633e-04
      -1.8593186183068571e-03 1.4254308029464551e-03
      -1.5216629997243951e-03 -1.8371929884189002e-03
      -1.2258620193153433e-03 3.8351729596315610e-04
      2.1099175712824109e-03 1.7863209992656887e-03
      -1.2247747008538195e-03 1.8162513154208419e-03
      3.5836765706962333e-04 -1.4583466846682103e-03
      -9.4678862064250565e-04 -2.0185694331992534e-03
      5.0007426908329296e-04 3.3419538479413874e-04
      -2.2175583327624817e-03 -1.0735187867801201e-03
      9.4736631819714132e-04 8.3970004763847137e-04
      6.2358923090343843e-04 9.6438103725346653e-04
      -2.0369520889110078e-03 6.4702201125113492e-04
      2.3383344054417683e-03 1.2281939537303879e-03
      1.2927401487945866e-03 -1.5468214860170240e-03
      -2.5266550663653269e-03 1.5007337873308433e-03
      2.3680980617975661e-03 2.2349250432522716e-03
      2.2999814907800455e-03 1.2969997821679353e-03
      -2.3673641678226011e-03 -2.0032486596803086e-04
      -2.3534376162610343e-03 -1.6962028425291870e-03
      4.3836682255269548e-04 -7.6050639371804367e-05
      8.1104023479959477e-04 -8.0396979781924391e-04
      -2.4615152191688650e-03 3.4218733245572271e-04
      1.0915383629344161e-04 1.7198638275622551e-03
      -1.0731253240944380e-03 1.3505553406648746e-03
      -2.3020543406355185e-04 9.0669547390439078e-04
      -2.2164555538606943e-03 5.4420167816968225e-05
      -1.8052510358768502e-03 1.9240928100986337e-03
      -2.1490698847570181e-03 -2.4642684111729599e-04
      -8.7907366447753643e-04 4.6436471972906502e-04
      -1.1994013800273768e-06 -2.1401963432074326e-03
      -6.8970606255694563e-04 3.8017699352059709e-04
      -2.0592862362326545e-03 -2.5428084608797009e-03
      1.4869682197062102e-03 -1.3405091543033452e-03
      1.6968982477163824e-03 1.7704015934604858e-03
      6.4125698621222916e-04 -1.9799294755912370e-03
      -2.4456948771803062e-03 4.5459415416279625e-04
      1.2540231720655629e-03 -9.8573991260705852e-04
      -5.0831974461482338e-04 1.4804685750113480e-03
      1.4618755857651791e-03 5.2373276336358714e-04
      1.0008846415550826e-03 1.0255819283968911e-03
      5.8217573122884710e-04 -1.4314002514243861e-03
      2.4823145945763680e-03 1.3654473545955429e-03
      2.1318104993299112e-03 -2.0792807229852582e-03
      1.4158614666938980e-03 -1.4027274169071838e-03
      -2.2045368648913638e-03 1.4152284822082494e-03
      2.0776017304350481e-03 1.8025744156330470e-03
      9.9866222355474567e-04 -2.3696410317319218e-03
      -2.2997048297506593e-03 -4.1220031205319632e-04
      1.3155909968711251e-03 -1.8512591218222370e-03
      7.2309700106338800e-04 -6.7249481941697139e-04
      -9.3880677162632526e-04 5.4085995937998971e-06
      -1.2568627966251663e-03 2.3540797354095421e-03
      1.9258483297359360e-04 2.0414061453407719e-03
      -5.5441016609146411e-05 1.6725815764287602e-03
      -1.5141144667079401e-03 -8.0722320790434969e-04
      4.8796252411046546e-04 1.2086175359074178e-03
      1.2514949110977117e-03 3.7731660468528301e-04
      -2.4826689300271616e-03 1.2886341754009213e-03
      -5.3360375401134501e-04 -1.5712886999594831e-04
      1.1766592042732685e-04 6.8167344273453528e-04
      1.3105015618259488e-03 2.4140224040915858e-03
      2.0326166271387794e-03 3.8221501712223189e-04
      1.8753598136256482e-03 1.5706139240755106e-03
      1.4080165751850481e-04 5.4730393808934119e-04
      1.1817469450253414e-03 -7.6467872788588717e-04
      2.2710444851607738e-03 1.4284207686235297e-03
      -2.1640394359977761e-03 2.4457893471332356e-03
      1.0302372038769772e-03 -6.6290070468812839e-04
      -1.4451298252028944e-03 1.1914342813724884e-03
      -1.0918813788870273e-03 -9.1364733944037930e-04
      -2.4583099820259641e-03 -6.8171030556053613e-05
      1.2496583613574785e-03 6.3776170489075507e-04
      -3.8683981927118051e-04 -1.8659025885716541e-03
      -1.9792176715292720e-03 3.6679595765748348e-04
      -1.6397670071395846e-03 2.2832643959672383e-03
      -1.5311467304349752e-03 -8.4963358562182439e-04
      1.5747188477293560e-03 8.0289604840269507e-05
      1.8079935201470014e-03 1.3521554938666276e-03
      2.3852337982630670e-04 1.2806450060106214e-03
      1.8211759432619086e-03 -2.4058937198179193e-03
      -5.4046636689774219e-04 8.0350743146992648e-04
      -1.6005211839547368e-03 6.9970993113168138e-04
      -1.2509883349698166e-03 1.3176089252616268e-04
      -5.0670514849076426e-04 1.6515248902548099e-03
      -1.7115585312428518e-03 -6.1112208144371274e-04
      2.0779834801676711e-03 1.3882049216119921e-03
      1.6485342629295975e-03 -7.7584812544679335e-04
      1.7942296064808914e-03 -1.7482299744689528e-03
      1.8898010720566597e-03 1.8537586285029112e-03
      -1.6444973995184962e-03 -4.3799719571041755e-05
      -1.9234802182087976e-03 1.9955441270866278e-03
      7.8379081026646973e-04 -6.4226866380196466e-04
      -2.2320138745057973e-03 1.1573243959949119e-03
      -1.6460949203925604e-03 -2.0755162909711178e-03
      -1.2109553474629624e-03 -9.6223127535712103e-04
      -2.4556823726113244e-03 -2.0884822605287236e-03
      8.3647399913376011e-04 -1.1715070707087234e-03
      2.4278281631352622e-04 1.1581771796937818e-03
      -4.0330837013380296e-04 1.5824098313722309e-03
      -1.7101300713433915e-03 9.8356730709377085e-04
      1.6734374921022789e-03 -2.1473635452652425e-03
      -1.1191184655680651e-03 -2.3292075670681387e-04
      -3.0185425824921211e-04 -2.4501754057127340e-03
      1.5519678781633105e-03 1.7895093487173177e-03
      2.2824508221209183e-03 -6.9918115323958703e-04
      2.0545364196580111e-03 -2.3435375089882133e-03
      -1.8624521674573851e-03 -7.1530963808762377e-04
      1.1792094761575828e-03 1.1042226654290843e-04
      -2.2926958353979734e-03 1.0962807321928645e-03
      1.6831733648141063e-03 1.6013711343898489e-03
      -1.9381831863357066e-03 -2.3382058752455916e-03
      -3.0810437302436147e-04 -1.8981676633092390e-03
      -2.3042132699242283e-04 -2.0610169473894739e-03
      2.5842750669696794e-03 1.4309275739700636e-03
      1.5143113665246092e-03 9.0615531771475757e-04
      -1.3587519638244719e-03 2.4651313105914078e-03
      1.5240451687102117e-03 -2.4282771561775010e-03
      1.6318612250107445e-03 3.3842549473152013e-04
      3.0722036925785279e-04 -7.3227304338553559e-04
      2.0044199844071438e-03 -2.0345171809719943e-03
      2.3343011015022606e-03 1.1342255738478880e-03
      4.9593631029242922e-04 8.5410644862180007e-04
      -1.6293632787721685e-03 -1.3219935808418687e-04
      -5.1521000701130115e-04 -1.9641604846128209e-04
      1.4276188815836748e-03 2.3182068196054752e-03
      -2.0848562959408495e-03 -1.1070846748979814e-03
      1.7618235901167869e-03 -2.5618360897068618e-03
      2.2319216860293978e-03 -1.4248873289222749e-03
      2.5075396377822925e-04 1.0416372922339577e-03
      1.6182438616021888e-03 1.8310740123394638e-04
      -2.4202149852918923e-03 -1.4834529333748094e-03
      -2.1989756480028512e-03 1.6468337552542516e-03
      -9.1285134929262543e-04 1.5151216860828597e-03
      -3.0812673440370157e-04 1.5911389626931650e-03
      -6.5570337213540647e-04 -2.9035718609049234e-04
      -1.1680406412625435e-03 -1.1102282096722368e-03
      -1.2260975208491212e-03 -1.9098697270013918e-03
      -2.1367898873433620e-03 2.3938318505867615e-03
      1.7692072442782559e-03 -1.5633724628327972e-03
      1.9686120760248112e-03 1.0936093645767299e-03
      1.5014268025522310e-03 1.2225224264447640e-03
      1.3988882387713588e-04 -5.0878747939274579e-04
      4.7644154343392788e-04 -5.5902456870051352e-06
      1.7888709787267964e-03 2.2740766605146504e-04
      -1.6315934997171661e-03 1.8988406212037247e-03
      -2.2311248230213604e-03 8.7846907341580522e-04
      6.0220650472176240e-05 -2.4091755917998408e-03
      -7.2248770913339530e-04 -2.2116627076580559e-03
      -2.2906263240906094e-03 -1.8717700592702480e-03
      -2.1951752503844135e-03 -7.9686928123828880e-04
      -2.6945225394967539e-05 -2.3889395121703288e-03
      -1.5625490027188073e-03 2.0570338517863383e-03
      2.1373153903630152e-03 1.0288333781174402e-03
      1.9480833401877196e-03 4.9223404527388764e-04
      -2.5238726703305072e-03 -1.3079980521101626e-03
      -2.4689822304553876e-03 2.2754617926418891e-03
      -1.0526081234787173e-03 -3.6487051617187715e-04
      7.4661993505201955e-04 8.8176955885737579e-05
      1.4204778018725263e-04 2.2194126952998438e-03
      -1.1465519056710516e-03 3.3471743796456343e-04
      -1.3690072539198063e-04 -1.5037947783071259e-03
      -1.2131881101341631e-03 -6.5869390660468262e-04
      2.5136147601643034e-03 6.3911516776470122e-04
      -6.0170081568829549e-04 -1.5975527086024247e-03
      -1.5081125850617896e-03 -1.2483711438428058e-03
      1.6958192197941697e-03 -1.6874047182942665e-03
      2.0406328032924535e-03 5.4109352823225913e-04
      2.3572418043326508e-03 -6.6461234673784175e-04
      -2.2344712809501109e-03 1.7370420343524328e-03
      -2.4953692649923817e-03 -2.1902626961608791e-03
      -1.9654842893343217e-03 1.1293036224160132e-03
      -8.5480809002626572e-04 7.9639741538591817e-04
      -1.9809337215259256e-03 -2.4630292053501096e-03
      1.2599241735902565e-03 8.3371238203419936e-06
      2.1592955624610472e-03 2.1999471951598660e-03
      1.1908400715213755e-03 -1.1157910434807460e-03
      -2.4904038560582875e-04 1.9828792170721488e-03
      -1.3476219811589117e-03 1.6144009070914120e-03
      4.8018778456202432e-04 2.3727915737910585e-03
      -2.1034541822378084e-03 -2.1415394661600902e-03
      -2.0942570282149673e-04 -1.2922274163676011e-04
      -9.7633837759629482e-04 1.0675545593480118e-03
      2.4247779846677262e-03 1.6104579019445920e-03
      1.0372634287889719e-03 -1.3263478651929445e-03
      4.8783615052579307e-04 -2.3871620269005785e-03
      2.1658669210854781e-03 4.0543591949549873e-04
      -1.4967398316167893e-03 9.9766840101011352e-04
      9.5842339174919401e-05 -1.4131016345175648e-04
      -1.8496277487055810e-03 -3.8688260955722497e-04
      -7.2722988927389869e-04 5.3577705431732210e-04
      6.4167778067824818e-04 1.3213568390607301e-03
      -2.8343058822535193e-04 -2.2457459230124043e-03
      1.0844417227544930e-03 9.4519626124856611e-04
      2.7932098715385535e-04 1.6473504067753258e-03
      1.7313164229988214e-03 -1.9908499722539157e-03
      -3.4302859497689360e-04 -8.8577477050569438e-04
      1.1383949943254825e-04 -8.2428983473605184e-04
      2.4935082164892781e-03 1.6620632511049668e-03
      -1.7924774336673535e-03 1.4014582207323013e-03
      1.9521544230356070e-03 -4.3369631488864012e-06
      -2.2558503169665257e-03 -6.3522439460446671e-04
      1.1794046097692999e-03 -5.8840801530963866e-04
      -5.7352567867470278e-04 -2.0118437580888137e-03
      -8.2954032786138586e-04 1.4752613505524933e-03
      -1.1529014472708343e-03 -2.1574760225759378e-03
      9.5315673598294118e-04 1.7421520771953632e-03
      -7.9626029598626308e-04 2.3233125894624907e-03
      1.1527423738015780e-03 2.2943895895053165e-03
      9.5505359420173684e-04 8.4695743569538164e-04
      -6.1527419361116859e-05 1.9012744603890605e-03
      1.3811101708743393e-03 -2.3865669805059101e-03
      -3.1573820734691994e-04 -2.1070057850465333e-03
      2.1504632597150052e-03 -1.2185782622366392e-03
      -2.3527464889883270e-03 -9.6188132881904278e-04
      2.0882760223322494e-03 2.2963059157589333e-03
      8.6164361817796307e-04 2.2938623262233038e-03
      2.1033406601802065e-03 1.6570574109721556e-03
      -1.3476482375602335e-03 1.3548378242118010e-03
      -1.7252890213117569e-03 -9.4683011213765925e-04
      1.6393767554926939e-03 -1.6294771394427603e-03
      2.5219725353717230e-03 1.6091874831158180e-03
      1.7540571965168929e-03 -1.3138946119233880e-03
      -1.3818338026690637e-03 1.2919432192977096e-03
      5.2065326746362215e-04 -1.4259099601866515e-03
      1.4388457219316937e-03 2.1229797614214863e-03
      2.3265137146770715e-03 -9.4943249687301544e-04
      -2.2401223218766913e-03 -1.0299216535163650e-03
      -2.3407606355034072e-03 -1.5261092614926182e-03
      -2.3265652824038833e-03 4.7096330133939405e-04
      -2.2141228230922556e-03 -1.0368395841838908e-03
      -2.3902130000099330e-03 -6.7511542148368335e-04
      -1.2864807580300723e-03 -7.2476447770544576e-04
      -2.1492792608209699e-03 -1.8627811264475247e-04
      -2.3201687831470703e-03 1.1290287380168712e-03
      -1.8669768818578415e-03 2.2362722195235735e-03
      8.0332181871714059e-04 -2.6364440904096234e-04
      -1.0969783726154777e-03 -1.2612401614405214e-03
      -2.3146101162683252e-03 1.8099731669868398e-03
      2.3059498799041142e-04 -1.4460718159596216e-03
      -4.4575466122235706e-04 -9.1976276145972413e-04
      -3.3430557980620768e-04 1.3008530129872023e-03
      -6.2276622778126517e-04 9.5453722034921510e-04
      -2.1125038787852216e-03 -2.0708700987723499e-03
      1.3896253439127217e-03 -1.6220540185531104e-03
      -6.1094991801359757e-05 -2.4033101651940400e-03
      2.0200620487014569e-03 1.3401661262286558e-03
      1.7378402962273996e-03 1.2622001108558072e-03
      2.1219500594079161e-03 6.8735298374746859e-04
      -9.4233822913175277e-04 -1.5570917301707494e-03
      9.4202241748686814e-04 -8.2246624124944297e-05
      -2.0779578190614528e-03 -2.3425124091877416e-03
      2.4800072015925679e-03 -3.7517521843828569e-04
      1.5333096958438271e-03 -2.0463205170469185e-04
      -9.6729401694072340e-04 1.0278042168776680e-03
      -2.1471447447724110e-03 2.2219113751527934e-03
      -7.6046705465305554e-04 -1.4477190878338095e-03
      2.2969418109218087e-03 -1.0498357161568637e-03
      7.5893157523197209e-06 -5.1427017222484869e-04
      -2.0741507888035832e-04 -1.2750270045966054e-03
      -1.0205244621941986e-03 -2.2674548856424664e-03
      -1.3183111555557783e-03 -2.1033634975185676e-03
      -2.2761261064939906e-03 -9.1252804572785587e-04
      8.5654489175597992e-04 -1.9076068142659392e-03
      6.5237747732591148e-05 9.3643072674621847e-04
      -1.3167067929967476e-03 -1.8707731569319669e-04
      2.1096796350695396e-04 7.6982404271420371e-04
      1.7329578598765589e-03 1.5787247828741168e-03
      2.3734873592370568e-03 2.0637465430880376e-03
      -6.1717326334730517e-04 -4.3604645662883538e-04
      2.3795422240091993e-03 -9.4478009162199243e-04
      -2.2625166793694440e-03 1.8737059697691702e-03
      5.6587466653073367e-04 -1.9603109408126481e-03
      -4.8058463320563847e-04 2.7335130032421652e-04
      -1.6113670894664736e-03 -2.2048205991931978e-03
      5.6780522165834706e-04 -3.4745597389515019e-05
      1.2956242151508015e-03 -6.4543606714512994e-04
      -1.6628111651374648e-03 2.0947902111110683e-03
      2.9548773808773485e-04 1.7305819543131657e-03
      -3.7975429368174472e-04 -1.7687834995642534e-03
      2.4180365761147958e-03 2.3523568077306036e-03
      -1.2069889567308655e-03 4.4308490943218559e-04
      -1.5179642873671131e-03 -8.7803738569985153e-04
      4.3472526194037012e-04 5.6108848391255299e-04
      8.1344258797895409e-04 -3.0913411210118117e-04
      -1.3031592582726976e-03 8.9551951712634685e-04
      1.3912398855951233e-03 1.0562222524353839e-03
      -2.4191583006407012e-04 -1.3910501813282044e-03
      -1.1338867673053499e-03 8.0296326768569399e-04
      1.8205861206110248e-04 1.5261867539824105e-03
      -2.3428463568896710e-03 -1.2240567201625651e-03
      -9.6631872044087251e-04 2.6675942656919824e-04
      -8.5755558735715973e-04 2.1016492322200953e-03
      -1.2781205696404214e-03 3.2698463444199926e-04
      -5.4219878123946041e-04 -2.4234602196634945e-03
      -1.5195794717596999e-04 -1.1159745783324152e-04
      -1.2754761472135786e-03 1.8740413463363139e-03
      7.1723437773865557e-05 7.0681783326243908e-04
      6.2635235000914981e-05 -1.9164362505714274e-03
      1.7087481195290730e-03 -2.1696413633305617e-03
      -2.9219060401943685e-04 1.1382689203266938e-03
      -1.1539536179386771e-03 -2.0406751141909523e-03
      2.6531530683694866e-04 -1.8971258327623304e-03
      -7.3802756998401673e-04 -5.6600145153860144e-06
      -2.3373421163277400e-03 6.1385090351922774e-04
      -2.1614650108792610e-03 1.7154924714512978e-03
      -3.2312846534339213e-04 2.1057069694721407e-03
      -3.7232250150414617e-04 1.8566350946428575e-03
      2.2811978958039861e-03 -1.0426359743104729e-03
      1.0763833965110746e-03 -2.4059253182243359e-03
      1.9347237773982432e-04 2.3471026210998363e-03
      5.9245486328478314e-04 -1.2721968826263702e-03
      -1.4765407922161216e-03 4.7361676204731853e-04
      2.0528567978636831e-03 2.3960840416291378e-03
      2.2891213066334138e-03 1.2260727197541549e-03
      4.7076443270880312e-04 -1.8989075810434202e-03
      1.5614734726158710e-03 1.5756456005196256e-03
      -1.9407772307120661e-03 -1.8114495270365185e-03
      1.7837455557398541e-03 -7.8965220393009000e-04
      1.2194176206592926e-03 -3.9373441084868441e-04
      -7.0036304922911543e-04 1.7669639648478135e-03
      -7.6998449352049783e-04 2.3700409985625667e-03
      -2.3310014938941756e-04 1.9394414123851826e-05
      1.1251285611750094e-03 -1.1411157294395837e-03
      -1.8065037803539484e-03 -1.3750306883229082e-03
      1.5184359208290611e-03 -2.5577932330219425e-03
      -1.5315560569063270e-03 1.2450623862970492e-03
      -1.6769463282852266e-03 -1.1407877696454607e-03
      -1.7450602488574770e-03 2.3707486576198195e-04
      2.2397168151562005e-03 2.4220829391889110e-03
      -1.1825633399235272e-03 4.6799572598169991e-04
      1.6521004652817952e-03 2.0649586365204982e-03
      -2.6832251306575480e-04 8.9610702606824017e-04
      -8.5258163401205676e-04 1.0985576851216558e-03
      7.2510102142019030e-04 1.1442567731709424e-03
      -2.1559579524454689e-03 -1.7172677460448003e-03
      1.4164903121689680e-03 -2.1959964029252756e-03
      2.4853023184474099e-03 5.6189881680680429e-04
      -2.1327277463346391e-03 1.2376929080304762e-03
      -2.3227631959276901e-03 2.4120322321395877e-03
      2.6716656441778941e-04 8.1584252651714683e-04
      2.2953153371317028e-03 -1.2437064383753985e-03
      1.2959839945449786e-03 -6.7820649460899188e-04
      -6.6571577455423086e-04 1.1462111790202258e-03
      2.3706231153933564e-03 -1.8010175691649834e-03
      2.0555087690750031e-03 2.8984388992133527e-04
      1.8520543735109361e-03 1.4466576111475499e-03
      -1.0408105381045029e-03 -2.4429848070626158e-04
      2.1278611551909612e-03 1.1052344849717616e-03
      9.1089933745043311e-04 3.7423707290461141e-04
      1.0766520363299718e-03 -5.4924400659971080e-05
      1.4747365807939088e-03 -2.3342038998617810e-03
      9.3863755278867191e-04 2.0868864267757263e-03
      1.4353976223345937e-03 8.0670722930146273e-05
      -6.6601619693575488e-05 -1.1728615964104660e-03
      1.2641911193869706e-03 1.4600304651329560e-03
      2.4609058252736652e-03 1.2192572683549512e-03
      -1.4261947267697258e-03 6.6948891517977537e-04
      -1.4088055714047633e-03 2.1666629295697421e-03
      1.8462668773158160e-03 -1.5914993803691688e-03
      6.7238500974824689e-05 -1.0998054362592301e-03
      -1.1244515633596840e-03 2.2465617770209213e-03
      -1.3860609169086692e-03 8.8414290736526352e-04
      1.2418506404166746e-03 -1.6415465303808944e-03
      2.4166337702832010e-03 -2.1111835766581674e-03
      2.2585166705138405e-03 1.5041022026570572e-03
      -1.9402429626209854e-04 1.5635912823090561e-03
      1.0527846433361755e-03 -2.4169009030789610e-03
      -1.3854918430142484e-03 1.1361739990135213e-03
      -1.2725678100463907e-03 -2.2918120002442043e-04
      4.5706989180679627e-04 -1.2491618415399546e-03
      7.7696310751877891e-04 1.6452238744204136e-03
      -1.7248358245805401e-04 -2.0240745936171011e-03
      1.3772838039329447e-03 1.4563748305047501e-03
      -8.9460343635394412e-06 -8.8048899602689618e-04
      2.3318587350374203e-03 2.2810023990172744e-03
      -5.4024944613879249e-04 -1.8062263539025743e-03
      2.2589095719825567e-03 6.2317448038875340e-04
      -1.6378367687758216e-03 1.9693113426982930e-03
      1.6062785701707767e-03 -1.4651675207955888e-03
      -1.0536184707310462e-03 2.5578790769550616e-04
      -8.9609605955051329e-05 7.0863529884173976e-04
      1.1717752916543889e-03 -6.5315598326807719e-04
      1.0237435601995993e-03 -1.8723753304900521e-03
      -5.0490023417727335e-04 -8.7468650342374665e-04
      1.7086922934829211e-03 -1.1177371690212737e-03
      -1.0977192298165536e-03 1.1708706722467967e-03
      9.3807082562001153e-04 -2.0463162470105429e-03
      3.3340087556159629e-04 8.0738156914729627e-04
      2.3864595936154368e-03 -2.2633912999653308e-03
      -8.8443685462903025e-04 -1.0945426654387529e-03
      2.1114512972206503e-03 1.6292350416410603e-03
      -2.0214387742166955e-03 -1.5304206143414241e-03
      -2.5543792238464612e-03 -1.3190252779464999e-03
      1.3667392178958392e-03 -1.7589560372211733e-03
      1.6363905741839570e-03 1.3785901492832497e-03
      1.4221347184091497e-03 -4.8622079533886930e-04
      1.8523690690677808e-03 1.2075820344565719e-03
      -2.3560463487590291e-03 -1.2303518715028072e-03
      7.8962695671499768e-04 6.0498408230288383e-04
      -2.0041310836541086e-04 7.9586649076473614e-04
      6.4138885142331640e-04 6.2339728237590188e-04
      2.5308638070391230e-03 2.1113546681678307e-03
      -1.6574247463865591e-03 6.4766789473025006e-04
      1.3089181549566407e-03 8.2461455782334089e-04
      1.4292101644534357e-03 1.5413909708778112e-03
      -1.0639742986246106e-03 -1.1776937507349838e-03
      2.4596637483821762e-04 -4.5674209974711253e-04
      1.0780409269072065e-03 3.9374306072977841e-04
      -2.3708819565167001e-03 9.3359907856066461e-04
      2.0083151546723349e-03 1.8272778278342235e-03
      6.9828899729658671e-04 5.1735722337835604e-04
      5.1785538133258347e-04 -2.2195795021714851e-03
      -1.9206163588961576e-03 -2.3564656836951659e-03
      8.2126803989862628e-04 -4.2084850458190711e-04
      -2.3587344326903787e-03 9.1357249180923600e-04
      1.9292145995443890e-03 -2.1951551430501085e-03
      -8.6467205170623806e-04 2.0450267767225462e-03
      -1.1554535384737091e-03 1.8222234801288639e-04
      -1.0240729083307129e-03 -2.4259810056627643e-03
      1.2909672784429216e-03 -1.4727425877345641e-03
      9.8566882800872960e-04 -1.7897816937535529e-03
      -1.5935451973514072e-03 -1.0374744319149859e-04
      -2.0618520102469022e-03 6.5600387690814999e-04
      -1.9672737562515623e-04 2.1460499370567288e-03
      1.1049065731680995e-03 -1.1124302738558074e-03
      -2.4493817607904389e-03 -1.9128838029790416e-05
      1.5226777457462066e-03 4.8162380028477479e-04
      -2.2248485088827374e-03 -1.3337644822310629e-03
      -1.2570264942768554e-03 -1.3471148801908305e-03
      -1.9327819353228107e-03 -8.3674110324846740e-04
      1.6038869237644995e-03 -2.3718096809756768e-03
      -2.3197604221525925e-03 2.1373903023772325e-03
      1.7335641348217687e-03 -5.4834811514299929e-05
      1.8489978706990979e-03 -5.9709966640714032e-04
      -7.5408931194511839e-04 -2.6701187113072674e-04
      -1.6205887633824940e-03 2.0358579351147518e-05
      1.4710876347898301e-03 -4.0469844855370448e-04
      -1.2499106254333717e-03 -2.0022857787331330e-03
      -1.6101205454131292e-03 2.1193049414988722e-03
      -1.0145529383584655e-04 -4.9366862534875374e-04
      1.8996068578570392e-03 1.2751935717241465e-03
      5.5986018710755094e-04 2.3401255253264319e-03
      1.8574524887066375e-03 2.5449263979385205e-03
      4.9174117610266280e-04 2.1159212455854250e-03
      -2.2518042367263066e-03 2.4168842712453172e-03
      2.0128130992059924e-03 -4.1407593537220707e-04
      -4.2911295418353003e-04 1.9337204557676676e-04
      8.1521574437030627e-04 1.9337108456058407e-03
      -2.0227188024618029e-03 5.3144872838818893e-05
      -8.3253476628240397e-04 -1.7613601221703166e-03
      -5.3310785367231958e-04 1.8644099487470393e-03
      -2.4323731400010648e-04 9.4286154477943979e-04
      -2.5086734848478748e-03 -1.2774683424536522e-03
      -2.0728466905956451e-03 4.9523821117368232e-06
      -5.3542046750893011e-04 -2.1120917059856094e-03
      8.8868961566093609e-04 -1.1822627199413681e-04
      -1.5608568662101197e-03 2.4843638094590916e-03
      -1.4643507096143977e-03 -3.0941395677795995e-04
      -1.2020835393391559e-03 1.2402720079093296e-03
      -1.7621606176612917e-03 5.4348254573992447e-04
      -2.9721578650100932e-04 -1.3811667550795751e-03
      -2.2638752409792893e-03 -2.4117862255121367e-03
      9.4131605103578604e-04 -1.1488989299614201e-03
      -2.2170290885286290e-03 -1.9388221839784128e-03
      2.4192465788372831e-03 -3.6301939865311178e-04
      1.1936212392456293e-03 -3.2352282298011366e-04
      -8.4072711067620658e-04 1.6757991883189298e-03
      -1.2197991989212748e-03 7.7215413932297042e-04
      4.8608188920366320e-04 1.1807590089974449e-03
      1.9035887446631409e-03 2.0430706513688683e-03
      -7.0481101187559671e-04 -2.1391933032190390e-03
      -1.6722906048924761e-03 4.0418897860407320e-04
      -1.0948531942673986e-03 6.2845915974400410e-04
      2.8467446622635289e-04 7.1301419407129364e-06
      -1.9520772735413894e-03 9.6478133724800226e-04
      1.6748590481547787e-04 -1.8426482634378873e-03
      -2.5044088343399019e-03 2.1328752650343042e-03
      9.7940098225204691e-04 -1.1246740974158590e-03
      -1.2147735505715627e-04 -1.9877965366416608e-03
      8.3164271816482465e-04 2.0051486555808354e-04
      1.0971990663864980e-03 1.7896879019800433e-03
      -1.1643265276362258e-03 1.4704769451938369e-03
      5.5558269047500654e-05 1.6323857113135344e-03
      2.4622543811438904e-03 2.1903342252888904e-03
      1.7804830544741793e-03 -2.3797625596339120e-04
      -8.2481057183995520e-04 -2.0514012269355376e-03
      -2.4228625125908812e-03 -6.5185124875874608e-04
      7.4441134276044952e-04 3.9274501889417248e-04
      -5.9630297485111508e-06 -2.0094444388413569e-03
      1.2786259815994892e-03 1.8483514612749267e-03
      1.0924476856528156e-03 1.3703479507249977e-03
      -2.2618816221256842e-03 -2.3716226246977214e-03
      -1.9177022292146152e-03 9.0703075697015916e-04
      6.5955289830785821e-04 -2.1405205958201765e-03
      -7.2486270088028117e-04 -1.0917630964900787e-03
      -1.9541590888534077e-03 4.5156899081024321e-04
      5.4002040559780588e-04 2.2391480353225472e-03
      -1.6010439034394876e-03 -1.1174760230132437e-03
      -1.4513431825391224e-03 -1.6545687068442430e-03
      1.1090023763992985e-04 2.1829173709937335e-03
      -1.2808192632084585e-05 2.1697119832870169e-03
      -7.6337168974958383e-04 2.2633557524947543e-03
      4.0524618451984639e-05 5.4523635759113750e-05
      1.4157782376254793e-03 -1.9231674831963266e-03
      -1.8932437268725808e-03 1.5073124817033645e-03
      3.7344011120402901e-04 -8.6869773231547463e-04
      -1.2680638710081300e-03 -1.3827853288151163e-03
      -2.4490457569583558e-03 5.2371653024836163e-04
      1.9584453219989749e-04 -2.5647546898701148e-03
      -1.2653929498345172e-03 2.4321291893376284e-03
      1.9017588273957724e-04 -1.2950321640435746e-04
      2.1116820088001718e-04 -2.5063244525518314e-03
      2.3174843074760293e-03 2.3703290141336010e-03
      -3.6058830986179390e-04 1.9146263822081034e-04
      2.2402937356027111e-03 -6.2038563732430443e-04
      -1.4608700166401033e-04 -2.5238414107063888e-03
      1.2232485752911701e-03 -1.8069679075870422e-03
      1.4890151317399774e-03 -1.5688944252391836e-03
      1.4129163617445123e-03 -1.6156236797334014e-03
      -2.2620988399443161e-03 -2.0706874204191542e-03
      1.4349816376438445e-03 -1.7463602319458989e-03
      2.1817553520688412e-03 1.4467103983496668e-04
      -1.1724437719222628e-04 9.8614374930735497e-04
      1.6433330502730406e-03 5.9557602480710494e-04
      1.3516634227409564e-04 1.9551850190976922e-04
      2.1698740415205539e-03 1.3124518756262458e-03
      2.4247537430628972e-03 1.3988567520593639e-07
      8.9310348449784269e-04 1.8985610999533309e-04
      -7.1277591793221095e-04 -2.1854684675126478e-03
      2.1958625320112196e-03 -1.1071780484136909e-03
      1.2928768430421737e-03 1.3249638897653813e-03
      1.1220450647644270e-03 6.2248706759253109e-04
      -2.2606740230467874e-03 -2.2811778710879098e-03
      -6.0264563414942412e-04 -1.9043205867550175e-03
      -8.4445284609620860e-04 2.1643796508892961e-03
      1.5485366300279811e-03 5.1319476538112850e-04
      1.7085538496277293e-03 1.6521758151621525e-03
      1.4626063872326710e-03 -7.2923611960057488e-03
      -2.6952375127823904e-03 -3.1624420280819361e-04
      7.1121834536090021e-03 -1.3112465676516987e-02
      -8.8960775638595741e-03 1.3404025351737756e-03
      2.4671547920620518e-03 -6.5985445005047449e-03
      -4.3991483304901065e-04 -2.8206513089917308e-04
      -1.0442083593701725e-02 1.8278648336157086e-03
      -6.1026938648741204e-03 2.0692545390348822e-03
      5.3271899329054304e-03 1.6051062302144630e-02
      1.6741775633127168e-03 -8.4837854166615670e-04
      1.6755370171147453e-03 1.0189394671729574e-03
      7.0011348647172050e-03 -1.3583888254308546e-03
      -1.0754135951731950e-02 -7.0321252922709810e-03
      4.0040200878685194e-03 5.7173515293239968e-03
      -5.8263358059720209e-04 -6.2337396313618051e-03
      -7.0333713677520136e-04 1.3400053582135983e-03
      -5.1357616874778264e-03 -3.7377487686673129e-03
      -1.7460373822550838e-02 -1.7238344270533417e-03
      -3.4286517805700543e-03 1.7813009413046213e-03
      9.9843679874039287e-03 -5.6310088827906616e-03
      5.7328332298270598e-03 -1.8220264855786233e-03
      -5.6482389451973638e-03 1.0463936109985252e-02
      -1.0995955210617305e-03 -3.7626346663617071e-03
      6.6929892413679782e-04 2.6835568010429938e-03
      9.9055199301791063e-04 -3.4305396349528245e-03
      -1.0045332453141325e-02 -4.4784770010481654e-04
      -6.0938490905686179e-03 2.6624608209962560e-03
      1.0766667866821281e-03 1.2267034400649383e-02
      3.6410457833908113e-03 5.5312912483242290e-03
      -5.9966641359674201e-03 -1.7459856349354983e-03
      6.8746459995874601e-03 -1.8066390737916482e-03
      -2.1105825691793206e-05 -4.9895584508488494e-03
      -1.3927150484746632e-03 6.5574454475429934e-03
      -1.6782532814444797e-03 -1.0258604737438965e-03
      3.6403000280028526e-03 -4.4482218384148814e-03
      3.2825209463400885e-03 9.3717174741999882e-03
      4.5606073331689842e-06 -6.5647382173064598e-03
      1.0745005167551943e-03 -1.3654476697053101e-02
      -9.6497400734319512e-04 -2.7357444788114385e-04
      1.3389533763548945e-02 -3.0487696095276667e-04
      3.7698804279128707e-03 4.8510055653741124e-03
      9.4235869115628945e-04 1.1033022272400611e-02
      -2.0832439007879809e-03 -1.5510011761792292e-03
      7.8696068336574308e-03 -1.6151987325947557e-02
      8.9537584907936427e-03 -3.0952196074485001e-03
      6.4978563256324201e-03 3.7537853425064385e-03
      1.2748734197510559e-03 8.6736799930188374e-03
      -3.5492942484966275e-03 5.8265038654466432e-04
      -1.2496169800720346e-03 1.3894586320664451e-03
      4.7296276779476730e-03 1.7332360767063456e-02
      -1.2541668628275118e-03 5.2881290567882138e-03
      -1.0291821638401470e-02 -5.8492949425062511e-04
      -7.9682242720205019e-05 -5.4316495804266124e-03
      1.9178075294072306e-03 -3.4268852461811932e-03
      5.9794325854512550e-03 -3.8777620843497900e-03
      -5.8759748662136487e-04 -6.9675188420710620e-04
      -4.1283176896591573e-03 1.8510170820523798e-03
      -2.6061905338242812e-03 -1.6478845667759735e-02
      -5.0900546709920225e-03 -1.7146896432132505e-02
      9.8201310992879574e-03 -2.5049634386124092e-03
      1.1800276408201508e-04 -1.3640131419698543e-03
      2.8786529272190682e-03 2.3520461872012562e-03
      -3.1939583439349085e-03 4.3634673065782075e-03
      3.4780962576855170e-03 3.8566825091910688e-03
      4.3028123001523556e-04 -1.1416456556421260e-03
      -4.8646526729063241e-03 -2.8650893018748948e-03
      1.3709065284559939e-03 -6.9157141208338480e-03
      -1.8636540618430317e-04 3.1225443940184829e-03
      5.0788643284284645e-04 1.6604110696033221e-03
      -2.9619309517528892e-04 2.1577508362012704e-04
      -4.0596993086501485e-04 2.2941763736450567e-04
      -2.2740129784910470e-03 -7.6011816335386901e-04
      3.1557013113115810e-03 8.0879063447210735e-03
      -1.9216374162634808e-03 2.6448680130862837e-03
      1.4124211387242833e-04 -3.6376632724373261e-04
      6.7915655897436613e-03 -3.5205037699012013e-03
      -5.5023847594006976e-03 -4.4919110653584230e-03
      -1.4795946834242010e-03 1.4609857120755458e-03
      -3.6786834208773185e-03 6.6900426302454199e-04
      3.5014226364376297e-03 2.7850890745265626e-03
      -1.3179314134992963e-03 4.2484507088696674e-04
      -3.0490444328226227e-03 -2.1716776787831537e-03
      -1.1240381082475344e-03 -1.8837567945996486e-03
      1.9492167837397395e-03 -1.2518440664350787e-04
      5.8078761797310209e-03 -1.9317527702894673e-03
      -2.7323966098209136e-03 3.0909674542296687e-03
      1.5831259711848538e-03 -1.9025070555999230e-03
      2.0212454305521491e-03 -6.4327245421819763e-04
      7.8937742374801309e-04 -3.9116661379141925e-03
      -1.6469371598742343e-03 -1.3250907870195315e-03
      -3.6321279270167973e-03 1.2171671041643452e-03
      -5.8573728623710988e-04 4.2882673309238310e-03
      2.0421860018110349e-03 3.9068622710798891e-03
      -2.0005631530507443e-03 -3.4724993490711426e-03
      8.6130172647427622e-04 4.3658224006973647e-04
      -9.6373475494977332e-04 -1.8734840194231685e-03
      2.1602579226784966e-03 4.3548874767422854e-03
      -1.1362331174861840e-04 1.3218557372325251e-03
      -5.7266162587004679e-04 -3.4916278151446369e-03
      2.5891268448329807e-03 4.9786658505073323e-03
      7.6319060462588188e-04 -1.1527013293427971e-03
      -6.7201321389437517e-03 -4.9069855407558776e-03
      -1.2447724687706455e-03 6.4948230141268501e-04
      2.7177156696364885e-03 2.4482371286504022e-03
      -9.2498385303987852e-04 6.3915441610844258e-04
      -4.7708700811202045e-04 3.1208424566291169e-03
      1.6418832643020367e-03 -9.2782074036961500e-04
      3.1274285171273833e-03 -6.9089959834577859e-03
      1.8110934617348888e-03 2.2768025766015760e-03
      4.6137672919226037e-03 1.2480716650893106e-03
      -4.1724096605182809e-03 -2.7385425069297243e-04
      7.1263872253928343e-04 -2.2394973713956998e-03
      2.5676722923900865e-03 1.5809768927969939e-03
      -1.8428788968843392e-04 7.7936190699849301e-03
      -3.1923493343759815e-03 -1.4302361830199996e-03
      -1.3414637233577415e-03 1.7506930940065838e-03
      -2.9879697633741881e-03 -4.2603840969306929e-04
      -1.7656226272946727e-03 -2.3323903435141990e-03
      3.4355359595969336e-03 -8.9153508594714691e-04
      -2.8476727040661694e-03 4.3926644859979746e-03
      -1.4066796787983347e-03 1.1200670990067416e-03
      2.6325099218630953e-03 1.4242565613206322e-03
      -2.8903877654767414e-03 -3.6039736036213507e-03
      4.3096169869489727e-03 -1.1652957419826318e-03
      1.5409058909556122e-03 1.2261722693763409e-03
      -1.9236773137609510e-03 1.5607165460309676e-03
      -2.1407461434427423e-03 3.6448687828981230e-03
      4.2112951145850241e-04 2.6042542052544704e-04
      -2.0159843953095466e-03 6.6337541814070625e-03
      -3.1224456673178726e-03 -1.8118331187737041e-03
      -5.7849383991414663e-03 6.9957360346435534e-03
      8.3440776899156317e-03 4.9563970840049354e-03
      2.1597960689703107e-03 6.2823635481955055e-03
      6.9179573260245650e-04 -7.8196132245160965e-04
      7.4268277146244512e-03 -1.5587984928373459e-03
      7.3896612303091082e-03 -3.0335184449646717e-03
      -3.3496328016206943e-03 -1.1414438409958094e-02
      -6.2916339227389573e-04 5.8415701407789843e-04
      7.1374810196797611e-04 -3.0841026800983457e-03
      -3.3435873921491346e-03 -5.7555409389488934e-03
      5.7515760016012395e-03 2.9201967786205586e-03
      -5.4175408914423811e-03 -5.6321073633884017e-03
      6.5914014555611535e-04 5.1577671462004083e-03
      5.4700306796458455e-03 -1.1918543014167300e-04
      1.3372757633033463e-03 -1.3801570628664361e-03
      1.7045593522518249e-02 -1.6610492726373215e-03
      2.7135394319305704e-03 -1.2880529315983648e-04
      -6.7149513208744904e-03 1.0968876616573583e-02
      -2.0631933536112003e-03 -3.5880429908422117e-03
      4.1504871411295165e-03 -4.4335799502935548e-03
      1.2201873039136763e-03 3.4528431861211135e-03
      2.0041022529650515e-03 -2.3472160825952315e-03
      -1.7398420452480060e-04 2.7587314067427475e-03
      1.0542833019254037e-02 -3.4474185333131478e-03
      3.5269980499627856e-03 -2.2405252196804198e-03
      -1.5759738868714912e-03 -3.7667968993115894e-03
      2.9736354667026307e-04 -7.5952361564660580e-03
      1.0898763848047850e-02 -3.4340530065917331e-04
      -4.6823049902450353e-03 -1.6806757256810454e-04
      -1.6241344996565112e-03 1.1951920442077834e-03
      -4.9358171275197137e-04 -6.8704533279630143e-04
      -8.0445564890150559e-04 3.2808201882943843e-03
      -8.5173377993429892e-03 1.7246132006400660e-03
      -3.1459531007434062e-03 -1.1092705431731286e-02
      -4.0384882179717073e-03 6.2391168199383935e-03
      -1.3019192447569250e-02 1.2658658102914923e-02
      1.5993473625913876e-03 2.0845316665074306e-03
      -1.3282018161897566e-02 7.6891775246968361e-04
      -4.5685570310721405e-03 8.8792106520395493e-04
      4.0437650452033076e-03 -8.8799333710623349e-03
      3.1310465085170811e-03 -1.6744448207952126e-04
      -9.6058913791001333e-03 6.7088939510791768e-03
      -8.4966819429652621e-03 1.0891845464094782e-03
      -2.9895372254983479e-03 -2.8064086040133608e-03
      -2.8512315278260291e-03 -1.0006991308628404e-02
      8.3033007527479365e-03 3.0212818988101663e-03
      1.0973267109582205e-03 1.3685726333007111e-03
      -4.1901155350344390e-03 -1.3149837565661963e-02
      -3.4029934002934776e-03 -1.1538196680979633e-02
      1.6984083336387124e-02 5.9495248972929113e-03
      -5.4464100116483061e-03 8.5488866845405461e-03
      -6.9565198166543218e-03 4.1653214518914787e-03
      -5.5027661656109252e-03 2.9392882993665779e-03
      3.0525883083765777e-04 7.0975623563350283e-03
      4.4407552622261854e-03 1.1246749362486754e-03
      8.2344750209171792e-03 1.7155749410632436e-02
      5.8324292936233714e-03 1.3090984621512203e-02
      -7.3262306807730894e-03 2.7462735647965906e-03
      3.0903830823338450e-03 4.4601242823186131e-03
      -2.8128907096571665e-03 -9.8725963713794233e-04
      -1.6151328589373221e-03 -3.9565561107209437e-03
      -3.1539678541349435e-04 1.4351582775271134e-03
      -2.6326794960861368e-03 5.6572916457004602e-03
      -2.8694523557137586e-03 6.7581668725136257e-04
      -1.6381105108893752e-03 8.1008508975456382e-03
      7.2152544403770273e-03 2.7941269775790850e-03
      4.4165463773602467e-03 6.5240268481995206e-03
      2.8093394044675308e-03 -1.5949423320687952e-04
      9.1039268418513682e-03 -4.3891685341743425e-03
      7.3250265202338171e-03 -1.4049898954813036e-04
      -1.4227761815441664e-03 -8.0496914772011617e-03
      -1.0172923674515474e-03 1.4871545889200294e-03
      8.9991338981772542e-05 -4.3458188745523893e-03
      -2.9512222051638037e-04 -5.9194342924533518e-03
      6.8858979749753420e-03 5.7929989532520655e-03
      -2.9355322144827799e-03 -3.8470592394021902e-03
      -6.3969492266878947e-04 3.8548408128404659e-03
      7.5927161518973968e-03 1.9518412690160583e-03
      9.7367416659111103e-04 -1.2728515337519885e-03
      1.6048143741580805e-02 1.1782872418813154e-03
      1.8767500569977739e-03 -5.4778581642358180e-04
      -6.5333820991544103e-03 7.2918394613098059e-03
      -4.4196212601005781e-04 6.3103983446265047e-04
      1.2229490260245262e-03 -8.5965074418640104e-03
      -3.7728645681474592e-04 1.7996712369005676e-03
      8.1996487393877905e-04 -2.6224740808820603e-04
      9.6511083918840641e-04 5.6839955822145238e-03
      1.0306096952921178e-02 -3.0839563198716293e-03
      2.4974983352525669e-03 -1.6399603312470638e-03
      8.3399433957416155e-04 -3.0084022177350712e-03
      -2.8032593310755140e-04 -2.8919253428588065e-03
      8.3640302887109368e-03 -2.7032388622088969e-03
      -2.8702562661716623e-03 2.0934569432266994e-04
      -2.7043352160277473e-03 4.2475928566516000e-03
      -3.1525461146823526e-03 -4.9986491783297470e-04
      4.7773524037270955e-04 1.7331021519725401e-03
      -5.4134704008115594e-03 5.5122528029411672e-03
      -4.9860287191473302e-04 -1.0608701908661736e-02
      -3.0567909529925796e-03 3.4120964368673369e-03
      -1.0567629831519746e-02 1.0224950987243677e-02
      2.5784990333165827e-03 3.4550517903232845e-03
      -1.4552866330595755e-02 2.2436268591353647e-03
      -4.1195221693010233e-03 -3.2751108791822809e-04
      1.9489597886819846e-03 -7.5605314549243713e-03
      2.3919523618924142e-03 6.4309984807082695e-04
      -6.1121295435573172e-03 6.4415087474208547e-03
      -7.5850155435019393e-03 1.3306760864154163e-03
      -3.1636205872205767e-03 -8.1054710873261981e-04
      -7.1654780309299824e-04 -1.0973599984958997e-02
      6.0373376041328941e-03 2.7541843684196865e-03
      9.4847925200865134e-05 -5.0718421926397323e-04
      -2.6887510336176886e-03 -1.1362615859686216e-02
      -2.9440437342481084e-03 -8.6528784012766102e-03
      1.7579209338530230e-02 6.6192993353102764e-03
      -2.6705462060031995e-03 8.1767490485114003e-03
      -8.4527445186820625e-03 4.0692245399004696e-03
      -6.2065392732972647e-03 2.8994623316441143e-03
      4.2196296368653364e-03 7.8993195242313321e-03
      2.9346208547528898e-03 2.7190298207491813e-03
      8.7398859738991100e-03 1.6605808697877388e-02
      2.6581685448781676e-03 1.2167260573178261e-02
      -8.3348808680977320e-03 -5.7423623582335379e-04
      5.0332063800626503e-04 8.6317132511189616e-03
      -1.1267107087747142e-03 -1.9798138798500201e-03
      -1.9832259304987691e-03 -4.5794309868767823e-03
      -7.7927074297634580e-04 -6.2770477511289355e-04
      -1.4251225798383059e-03 -1.5890473498686717e-03
      -8.0762309645902435e-05 -1.3598342427780033e-03
      -2.3329599160474835e-04 2.1944935225832502e-03
      -3.1341928430198013e-04 -2.1922263295850375e-03
      9.7071599040508046e-04 -6.0095353360470230e-04
      -1.0077192213966163e-03 -1.6419727606589401e-03
      5.0062523016231519e-04 -7.9409760698395627e-04
      2.3268245151482894e-03 -2.0468511316547454e-03
      9.2268684687723699e-04 -1.4314526758790267e-03
      -8.4419261471443789e-04 -1.1969432282164984e-03
      1.8446382604288426e-03 2.3847812536233358e-03
      5.5158385214071565e-04 -2.0539159806931984e-03
      -2.2647566972810321e-03 -1.2628191512540651e-03
      1.1407262941905308e-03 2.1487395153413848e-03
      -4.7508851702659301e-04 1.2692018152679002e-03
      -2.4660597771764283e-03 -2.0416373966926577e-03
      2.2137754427938965e-03 1.3502825186573373e-03
      1.4719360545103945e-03 -2.3465435388210190e-03
      -1.5276287578448759e-03 -2.5793101753537207e-03
      -5.1924723391230166e-04 1.5539785870332219e-03
      -2.4201102895537148e-03 1.7466410681558149e-03
      6.3910461728594321e-04 -1.3580609603487308e-03
      4.2472001109238287e-05 1.8645721533267363e-04
      8.4512351475353009e-04 1.1142599147828771e-03
      -1.3356634894867308e-03 -3.6212014051385967e-04
      -2.2966934939481890e-03 1.9719099116868076e-03
      2.2489214812416091e-03 -9.8434573254274800e-04
      -2.3646822055203901e-03 -5.0097484966022668e-04
      4.6597902949478708e-04 -1.0127771509833752e-03
      -1.4790635154697787e-03 -3.6178672657465933e-04
      -1.1247278916798088e-03 2.1313179137396844e-03
      -1.4050098584243489e-04 -1.9379884581442455e-03
      2.0459234548227141e-03 5.5426752087562084e-04
      1.5580987702582152e-03 -1.6592700571560091e-03
      6.8541150144384015e-04 -1.4185491821169468e-03
      -1.1243757311370922e-03 1.7037839999180647e-03
      1.7760356005650851e-03 2.7166019658182066e-04
      -6.6032413410801761e-05 2.5261432233031028e-03
      -2.1638512433223623e-03 -2.0983609924951603e-03
      -1.8739297276718341e-03 -5.0356108291084347e-04
      3.7853657973991824e-04 2.7217982276205877e-05
      -1.2318122091693302e-03 6.0718514274289942e-04
      1.0577498401169922e-03 -2.4845962472362986e-03
      2.0520563877551054e-03 1.3329231160693901e-04
      1.5090166508916630e-03 1.3532937037258799e-03
      -2.5066093603463417e-03 -1.3801220405846833e-03
      2.3637018248354985e-04 2.4786624211029827e-03
      7.6784800687863461e-04 -1.3012221638679673e-03
      2.4906547033459827e-03 -1.1043562743765641e-03
      -1.4318982156896010e-03 -1.1471969312865490e-03
      2.1773329310063234e-03 -4.4705140376222175e-04
      1.3105611913593548e-03 8.1452422500496785e-04
      -9.1366296202897111e-04 2.0449186931324444e-03
      -1.4560454963189497e-03 1.8471579754772592e-03
      -1.2587707379805048e-03 -1.5031651943262245e-03
      2.3559195685230838e-03 -2.0973333356081193e-03
      1.1055320187090792e-03 2.2466733934783725e-03
      -1.0369560821572572e-03 -2.0729641523326596e-03
      -2.5725051391105183e-03 1.8501716763918469e-03
      1.4152677589054300e-03 -1.4969440594876577e-03
      3.9977425973761183e-04 -5.6343605289390297e-04
      -2.4625254994789605e-03 -5.2231688693838124e-04
      9.6327589326202488e-04 1.6089057456014990e-03
      1.7188050368139910e-03 -2.5163019297121580e-04
      -7.5506563896843071e-05 1.4521507289266069e-03
      1.8574904917527992e-04 -1.0509141955589495e-03
      -9.3023880985647160e-04 -2.0139141162951579e-03
      -1.4626053733747875e-03 1.7804692234739154e-03
      -1.0704200659513896e-03 -9.8626957586166815e-04
      -1.7319874843055476e-03 7.8345758797214839e-04
      5.5136955996922411e-04 1.3119419476491814e-03
      9.5378771390859142e-04 -1.1917524974114041e-03
      1.9075631831270469e-03 2.1677159175003814e-03
      -1.7479292680582246e-03 2.3388175365901915e-03
      -1.4414672328941158e-03 2.4868870447708391e-03
      -3.6368173046095998e-04 -2.1650288096681865e-03
      3.6176008094722134e-04 -1.9873334752539616e-03
      -2.5534401780306368e-03 -1.2356369717150067e-03
      1.5754160199984268e-03 2.0326737549197061e-04
      2.0704191576747257e-03 2.4541206103737821e-03
      -1.1129360633313013e-04 -2.5815101940882126e-04
      9.7799013941220810e-04 -2.1934174091139975e-03
      -1.5716432145992126e-04 2.4343539637844123e-03
      -5.6925812267788402e-04 -1.1063926488086289e-03
      -1.0589620961131262e-03 9.3560769119807239e-04
      2.0668680765194825e-03 1.5844745591952055e-03
      -5.6650202600989918e-04 -2.0296746044154049e-03
      -5.7459713064450134e-04 2.4229139811697362e-03
      -9.7908102784597805e-04 -1.4044535760038119e-03
      5.3885818634431710e-05 7.3332943086578219e-04
      1.2987625377323380e-03 9.4696911404761541e-04
      1.6466375797577881e-03 1.5725843182727206e-03
      1.2627209731022745e-03 3.6626579495774872e-04
      -4.5439681165526278e-04 -7.5170349193030416e-04
